theta0,theta1,bias
-10.0,-10.0,-1.00009
-9.5,-10.0,-1.00009
-9.0,-10.0,-1.00009
-8.5,-10.0,-1.00009
-8.0,-10.0,-1.00009
-7.5,-10.0,-1.00009
-7.0,-10.0,-1.00009
-6.5,-10.0,-1.00009
-6.0,-10.0,-1.00009
-5.5,-10.0,-1.00009
-5.0,-10.0,-1.00009
-4.5,-10.0,-1.00009
-4.0,-10.0,-1.00009
-3.5,-10.0,-1.00008
-3.0,-10.0,-1.00008
-2.5,-10.0,-1.00007
-2.0,-10.0,-1.00006
-1.5,-10.0,-1.00005
-1.0,-10.0,-1.00002
-0.5,-10.0,-0.99997
0.0,-10.0,-0.99989
0.5,-10.0,-0.99975
1.0,-10.0,-0.99954
1.5,-10.0,-0.99918
2.0,-10.0,-0.99858
2.5,-10.0,-0.9976
3.0,-10.0,-0.99599
3.5,-10.0,-0.99334
4.0,-10.0,-0.98899
4.5,-10.0,-0.98185
5.0,-10.0,-0.97016
5.5,-10.0,-0.95116
6.0,-10.0,-0.92051
6.5,-10.0,-0.87176
7.0,-10.0,-0.79591
7.5,-10.0,-0.68188
8.0,-10.0,-0.51915
8.5,-10.0,-0.30368
9.0,-10.0,-0.04568
9.5,-10.0,0.22736
10.0,-10.0,0.47994
-10.0,-9.5,-1.00015
-9.5,-9.5,-1.00015
-9.0,-9.5,-1.00015
-8.5,-9.5,-1.00015
-8.0,-9.5,-1.00015
-7.5,-9.5,-1.00015
-7.0,-9.5,-1.00015
-6.5,-9.5,-1.00015
-6.0,-9.5,-1.00015
-5.5,-9.5,-1.00015
-5.0,-9.5,-1.00015
-4.5,-9.5,-1.00015
-4.0,-9.5,-1.00014
-3.5,-9.5,-1.00014
-3.0,-9.5,-1.00013
-2.5,-9.5,-1.00012
-2.0,-9.5,-1.0001
-1.5,-9.5,-1.00007
-1.0,-9.5,-1.00003
-0.5,-9.5,-0.99995
0.0,-9.5,-0.99981
0.5,-9.5,-0.99959
1.0,-9.5,-0.99923
1.5,-9.5,-0.99864
2.0,-9.5,-0.99766
2.5,-9.5,-0.99605
3.0,-9.5,-0.9934
3.5,-9.5,-0.98905
4.0,-9.5,-0.9819
4.5,-9.5,-0.97022
5.0,-9.5,-0.95122
5.5,-9.5,-0.92057
6.0,-9.5,-0.87181
6.5,-9.5,-0.79596
7.0,-9.5,-0.68193
7.5,-9.5,-0.5192
8.0,-9.5,-0.30373
8.5,-9.5,-0.04573
9.0,-9.5,0.22732
9.5,-9.5,0.4799
10.0,-9.5,0.68542
-10.0,-9.0,-1.00025
-9.5,-9.0,-1.00025
-9.0,-9.0,-1.00025
-8.5,-9.0,-1.00025
-8.0,-9.0,-1.00025
-7.5,-9.0,-1.00025
-7.0,-9.0,-1.00025
-6.5,-9.0,-1.00025
-6.0,-9.0,-1.00025
-5.5,-9.0,-1.00024
-5.0,-9.0,-1.00024
-4.5,-9.0,-1.00024
-4.0,-9.0,-1.00024
-3.5,-9.0,-1.00023
-3.0,-9.0,-1.00022
-2.5,-9.0,-1.0002
-2.0,-9.0,-1.00017
-1.5,-9.0,-1.00012
-1.0,-9.0,-1.00004
-0.5,-9.0,-0.99991
0.0,-9.0,-0.99969
0.5,-9.0,-0.99933
1.0,-9.0,-0.99874
1.5,-9.0,-0.99776
2.0,-9.0,-0.99615
2.5,-9.0,-0.9935
3.0,-9.0,-0.98915
3.5,-9.0,-0.982
4.0,-9.0,-0.97032
4.5,-9.0,-0.95131
5.0,-9.0,-0.92066
5.5,-9.0,-0.87191
6.0,-9.0,-0.79606
6.5,-9.0,-0.68202
7.0,-9.0,-0.51929
7.5,-9.0,-0.30381
8.0,-9.0,-0.0458
8.5,-9.0,0.22725
9.0,-9.0,0.47984
9.5,-9.0,0.68536
10.0,-9.0,0.83578
-10.0,-8.5,-1.00041
-9.5,-8.5,-1.00041
-9.0,-8.5,-1.00041
-8.5,-8.5,-1.00041
-8.0,-8.5,-1.00041
-7.5,-8.5,-1.00041
-7.0,-8.5,-1.00041
-6.5,-8.5,-1.00041
-6.0,-8.5,-1.0004
-5.5,-8.5,-1.0004
-5.0,-8.5,-1.0004
-4.5,-8.5,-1.0004
-4.0,-8.5,-1.00039
-3.5,-8.5,-1.00038
-3.0,-8.5,-1.00036
-2.5,-8.5,-1.00033
-2.0,-8.5,-1.00028
-1.5,-8.5,-1.0002
-1.0,-8.5,-1.00007
-0.5,-8.5,-0.99985
0.0,-8.5,-0.99949
0.5,-8.5,-0.9989
1.0,-8.5,-0.99792
1.5,-8.5,-0.99631
2.0,-8.5,-0.99366
2.5,-8.5,-0.9893
3.0,-8.5,-0.98216
3.5,-8.5,-0.97048
4.0,-8.5,-0.95147
4.5,-8.5,-0.92082
5.0,-8.5,-0.87206
5.5,-8.5,-0.79621
6.0,-8.5,-0.68217
6.5,-8.5,-0.51943
7.0,-8.5,-0.30394
7.5,-8.5,-0.04593
8.0,-8.5,0.22714
8.5,-8.5,0.47974
9.0,-8.5,0.68527
9.5,-8.5,0.8357
10.0,-8.5,0.93773
-10.0,-8.0,-1.00067
-9.5,-8.0,-1.00067
-9.0,-8.0,-1.00067
-8.5,-8.0,-1.00067
-8.0,-8.0,-1.00067
-7.5,-8.0,-1.00067
-7.0,-8.0,-1.00067
-6.5,-8.0,-1.00067
-6.0,-8.0,-1.00067
-5.5,-8.0,-1.00066
-5.0,-8.0,-1.00066
-4.5,-8.0,-1.00065
-4.0,-8.0,-1.00064
-3.5,-8.0,-1.00063
-3.0,-8.0,-1.0006
-2.5,-8.0,-1.00055
-2.0,-8.0,-1.00047
-1.5,-8.0,-1.00033
-1.0,-8.0,-1.00012
-0.5,-8.0,-0.99976
0.0,-8.0,-0.99916
0.5,-8.0,-0.99818
1.0,-8.0,-0.99657
1.5,-8.0,-0.99392
2.0,-8.0,-0.98957
2.5,-8.0,-0.98242
3.0,-8.0,-0.97074
3.5,-8.0,-0.95173
4.0,-8.0,-0.92108
4.5,-8.0,-0.87232
5.0,-8.0,-0.79646
5.5,-8.0,-0.68242
6.0,-8.0,-0.51967
6.5,-8.0,-0.30416
7.0,-8.0,-0.04613
7.5,-8.0,0.22695
8.0,-8.0,0.47957
8.5,-8.0,0.68512
9.0,-8.0,0.83555
9.5,-8.0,0.9376
10.0,-8.0,1.00355
-10.0,-7.5,-1.00111
-9.5,-7.5,-1.00111
-9.0,-7.5,-1.00111
-8.5,-7.5,-1.00111
-8.0,-7.5,-1.0011
-7.5,-7.5,-1.0011
-7.0,-7.5,-1.0011
-6.5,-7.5,-1.0011
-6.0,-7.5,-1.0011
-5.5,-7.5,-1.0011
-5.0,-7.5,-1.00109
-4.5,-7.5,-1.00108
-4.0,-7.5,-1.00106
-3.5,-7.5,-1.00103
-3.0,-7.5,-1.00098
-2.5,-7.5,-1.0009
-2.0,-7.5,-1.00077
-1.5,-7.5,-1.00055
-1.0,-7.5,-1.00019
-0.5,-7.5,-0.9996
0.0,-7.5,-0.99862
0.5,-7.5,-0.99701
1.0,-7.5,-0.99436
1.5,-7.5,-0.99
2.0,-7.5,-0.98286
2.5,-7.5,-0.97117
3.0,-7.5,-0.95216
3.5,-7.5,-0.9215
4.0,-7.5,-0.87274
4.5,-7.5,-0.79687
5.0,-7.5,-0.68282
5.5,-7.5,-0.52006
6.0,-7.5,-0.30453
6.5,-7.5,-0.04647
7.0,-7.5,0.22664
7.5,-7.5,0.47929
8.0,-7.5,0.68486
8.5,-7.5,0.83532
9.0,-7.5,0.93738
9.5,-7.5,1.00334
10.0,-7.5,1.04479
-10.0,-7.0,-1.00182
-9.5,-7.0,-1.00182
-9.0,-7.0,-1.00182
-8.5,-7.0,-1.00182
-8.0,-7.0,-1.00182
-7.5,-7.0,-1.00182
-7.0,-7.0,-1.00182
-6.5,-7.0,-1.00182
-6.0,-7.0,-1.00181
-5.5,-7.0,-1.00181
-5.0,-7.0,-1.00179
-4.5,-7.0,-1.00178
-4.0,-7.0,-1.00175
-3.5,-7.0,-1.0017
-3.0,-7.0,-1.00162
-2.5,-7.0,-1.00149
-2.0,-7.0,-1.00127
-1.5,-7.0,-1.00091
-1.0,-7.0,-1.00031
-0.5,-7.0,-0.99933
0.0,-7.0,-0.99772
0.5,-7.0,-0.99507
1.0,-7.0,-0.99072
1.5,-7.0,-0.98357
2.0,-7.0,-0.97188
2.5,-7.0,-0.95287
3.0,-7.0,-0.92221
3.5,-7.0,-0.87344
4.0,-7.0,-0.79756
4.5,-7.0,-0.68349
5.0,-7.0,-0.52069
5.5,-7.0,-0.30513
6.0,-7.0,-0.04703
6.5,-7.0,0.22614
7.0,-7.0,0.47883
7.5,-7.0,0.68445
8.0,-7.0,0.83494
8.5,-7.0,0.93702
9.0,-7.0,1.003
9.5,-7.0,1.04445
10.0,-7.0,1.07009
-10.0,-6.5,-1.003
-9.5,-6.5,-1.003
-9.0,-6.5,-1.003
-8.5,-6.5,-1.003
-8.0,-6.5,-1.003
-7.5,-6.5,-1.003
-7.0,-6.5,-1.003
-6.5,-6.5,-1.00299
-6.0,-6.5,-1.00299
-5.5,-6.5,-1.00297
-5.0,-6.5,-1.00296
-4.5,-6.5,-1.00293
-4.0,-6.5,-1.00288
-3.5,-6.5,-1.0028
-3.0,-6.5,-1.00267
-2.5,-6.5,-1.00245
-2.0,-6.5,-1.00209
-1.5,-6.5,-1.00149
-1.0,-6.5,-1.00051
-0.5,-6.5,-0.9989
0.0,-6.5,-0.99625
0.5,-6.5,-0.99189
1.0,-6.5,-0.98474
1.5,-6.5,-0.97305
2.0,-6.5,-0.95404
2.5,-6.5,-0.92337
3.0,-6.5,-0.87459
3.5,-6.5,-0.79868
4.0,-6.5,-0.68458
4.5,-6.5,-0.52175
5.0,-6.5,-0.30612
5.5,-6.5,-0.04795
6.0,-6.5,0.2253
6.5,-6.5,0.47808
7.0,-6.5,0.68376
7.5,-6.5,0.8343
8.0,-6.5,0.93643
8.5,-6.5,1.00243
9.0,-6.5,1.0439
9.5,-6.5,1.06955
10.0,-6.5,1.08528
-10.0,-6.0,-1.00494
-9.5,-6.0,-1.00494
-9.0,-6.0,-1.00494
-8.5,-6.0,-1.00494
-8.0,-6.0,-1.00494
-7.5,-6.0,-1.00494
-7.0,-6.0,-1.00494
-6.5,-6.0,-1.00493
-6.0,-6.0,-1.00492
-5.5,-6.0,-1.0049
-5.0,-6.0,-1.00487
-4.5,-6.0,-1.00482
-4.0,-6.0,-1.00474
-3.5,-6.0,-1.00461
-3.0,-6.0,-1.00439
-2.5,-6.0,-1.00403
-2.0,-6.0,-1.00343
-1.5,-6.0,-1.00246
-1.0,-6.0,-1.00084
-0.5,-6.0,-0.99819
0.0,-6.0,-0.99383
0.5,-6.0,-0.98668
1.0,-6.0,-0.97498
1.5,-6.0,-0.95596
2.0,-6.0,-0.92528
2.5,-6.0,-0.87647
3.0,-6.0,-0.80054
3.5,-6.0,-0.68639
4.0,-6.0,-0.52348
4.5,-6.0,-0.30775
5.0,-6.0,-0.04946
5.5,-6.0,0.22393
6.0,-6.0,0.47684
6.5,-6.0,0.68263
7.0,-6.0,0.83326
7.5,-6.0,0.93545
8.0,-6.0,1.00149
8.5,-6.0,1.04299
9.0,-6.0,1.06866
9.5,-6.0,1.0844
10.0,-6.0,1.09401
-10.0,-5.5,-1.00814
-9.5,-5.5,-1.00814
-9.0,-5.5,-1.00814
-8.5,-5.5,-1.00814
-8.0,-5.5,-1.00813
-7.5,-5.5,-1.00813
-7.0,-5.5,-1.00812
-6.5,-5.5,-1.00811
-6.0,-5.5,-1.00809
-5.5,-5.5,-1.00806
-5.0,-5.5,-1.00802
-4.5,-5.5,-1.00794
-4.0,-5.5,-1.0078
-3.5,-5.5,-1.00758
-3.0,-5.5,-1.00722
-2.5,-5.5,-1.00663
-2.0,-5.5,-1.00565
-1.5,-5.5,-1.00404
-1.0,-5.5,-1.00138
-0.5,-5.5,-0.99702
0.0,-5.5,-0.98986
0.5,-5.5,-0.97816
1.0,-5.5,-0.95912
1.5,-5.5,-0.92841
2.0,-5.5,-0.87958
2.5,-5.5,-0.80359
3.0,-5.5,-0.68935
3.5,-5.5,-0.52632
4.0,-5.5,-0.31044
4.5,-5.5,-0.05194
5.0,-5.5,0.22167
5.5,-5.5,0.47479
6.0,-5.5,0.68077
6.5,-5.5,0.83155
7.0,-5.5,0.93384
7.5,-5.5,0.99995
8.0,-5.5,1.0415
8.5,-5.5,1.06719
9.0,-5.5,1.08296
9.5,-5.5,1.09258
10.0,-5.5,1.09843
-10.0,-5.0,-1.01338
-9.5,-5.0,-1.01338
-9.0,-5.0,-1.01338
-8.5,-5.0,-1.01338
-8.0,-5.0,-1.01338
-7.5,-5.0,-1.01337
-7.0,-5.0,-1.01336
-6.5,-5.0,-1.01334
-6.0,-5.0,-1.01331
-5.5,-5.0,-1.01326
-5.0,-5.0,-1.01318
-4.5,-5.0,-1.01305
-4.0,-5.0,-1.01283
-3.5,-5.0,-1.01247
-3.0,-5.0,-1.01187
-2.5,-5.0,-1.01089
-2.0,-5.0,-1.00928
-1.5,-5.0,-1.00662
-1.0,-5.0,-1.00225
-0.5,-5.0,-0.99509
0.0,-5.0,-0.98337
0.5,-5.0,-0.96431
1.0,-5.0,-0.93357
1.5,-5.0,-0.88467
2.0,-5.0,-0.80859
2.5,-5.0,-0.69422
3.0,-5.0,-0.53099
3.5,-5.0,-0.31484
4.0,-5.0,-0.05601
4.5,-5.0,0.21795
5.0,-5.0,0.47143
5.5,-5.0,0.67772
6.0,-5.0,0.82874
6.5,-5.0,0.93119
7.0,-5.0,0.99742
7.5,-5.0,1.03904
8.0,-5.0,1.06479
8.5,-5.0,1.08058
9.0,-5.0,1.09022
9.5,-5.0,1.09608
10.0,-5.0,1.09965
-10.0,-4.5,-1.02197
-9.5,-4.5,-1.02197
-9.0,-4.5,-1.02197
-8.5,-4.5,-1.02196
-8.0,-4.5,-1.02196
-7.5,-4.5,-1.02195
-7.0,-4.5,-1.02193
-6.5,-4.5,-1.0219
-6.0,-4.5,-1.02185
-5.5,-4.5,-1.02177
-5.0,-4.5,-1.02164
-4.5,-4.5,-1.02142
-4.0,-4.5,-1.02105
-3.5,-4.5,-1.02046
-3.0,-4.5,-1.01948
-2.5,-4.5,-1.01786
-2.0,-4.5,-1.0152
-1.5,-4.5,-1.01082
-1.0,-4.5,-1.00364
-0.5,-4.5,-0.9919
0.0,-4.5,-0.9728
0.5,-4.5,-0.942
1.0,-4.5,-0.89301
1.5,-4.5,-0.81679
2.0,-4.5,-0.70219
2.5,-4.5,-0.53864
3.0,-4.5,-0.32205
3.5,-4.5,-0.06269
4.0,-4.5,0.21188
4.5,-4.5,0.46594
5.0,-4.5,0.67273
5.5,-4.5,0.82413
6.0,-4.5,0.92687
6.5,-4.5,0.99328
7.0,-4.5,1.03502
7.5,-4.5,1.06085
8.0,-4.5,1.07669
8.5,-4.5,1.08635
9.0,-4.5,1.09224
9.5,-4.5,1.09582
10.0,-4.5,1.09799
-10.0,-4.0,-1.03597
-9.5,-4.0,-1.03597
-9.0,-4.0,-1.03596
-8.5,-4.0,-1.03596
-8.0,-4.0,-1.03594
-7.5,-4.0,-1.03593
-7.0,-4.0,-1.0359
-6.5,-4.0,-1.03585
-6.0,-4.0,-1.03577
-5.5,-4.0,-1.03563
-5.0,-4.0,-1.03541
-4.5,-4.0,-1.03505
-4.0,-4.0,-1.03445
-3.5,-4.0,-1.03347
-3.0,-4.0,-1.03184
-2.5,-4.0,-1.02917
-2.0,-4.0,-1.02478
-1.5,-4.0,-1.01758
-1.0,-4.0,-1.0058
-0.5,-4.0,-0.98665
0.0,-4.0,-0.95575
0.5,-4.0,-0.90661
1.0,-4.0,-0.83014
1.5,-4.0,-0.71519
2.0,-4.0,-0.55111
2.5,-4.0,-0.33381
3.0,-4.0,-0.07356
3.5,-4.0,0.20197
4.0,-4.0,0.45698
4.5,-4.0,0.66458
5.0,-4.0,0.81662
5.5,-4.0,0.91981
6.0,-4.0,0.98654
6.5,-4.0,1.02848
7.0,-4.0,1.05442
7.5,-4.0,1.07034
8.0,-4.0,1.08006
8.5,-4.0,1.08597
9.0,-4.0,1.08957
9.5,-4.0,1.09175
10.0,-4.0,1.09308
-10.0,-3.5,-1.05862
-9.5,-3.5,-1.05861
-9.0,-3.5,-1.05861
-8.5,-3.5,-1.0586
-8.0,-3.5,-1.05858
-7.5,-3.5,-1.05855
-7.0,-3.5,-1.0585
-6.5,-3.5,-1.05842
-6.0,-3.5,-1.05828
-5.5,-3.5,-1.05806
-5.0,-3.5,-1.0577
-4.5,-3.5,-1.0571
-4.0,-3.5,-1.05611
-3.5,-3.5,-1.05447
-3.0,-3.5,-1.05179
-2.5,-3.5,-1.04738
-2.0,-3.5,-1.04014
-1.5,-3.5,-1.02831
-1.0,-3.5,-1.00905
-0.5,-3.5,-0.978
0.0,-3.5,-0.92861
0.5,-3.5,-0.85176
1.0,-3.5,-0.73621
1.5,-3.5,-0.57129
2.0,-3.5,-0.35283
2.5,-3.5,-0.09116
3.0,-3.5,0.18594
3.5,-3.5,0.44248
4.0,-3.5,0.65141
4.5,-3.5,0.80447
5.0,-3.5,0.9084
5.5,-3.5,0.97562
6.0,-3.5,1.01788
6.5,-3.5,1.04403
7.0,-3.5,1.06007
7.5,-3.5,1.06987
8.0,-3.5,1.07583
8.5,-3.5,1.07946
9.0,-3.5,1.08166
9.5,-3.5,1.08299
10.0,-3.5,1.08381
-10.0,-3.0,-1.09484
-9.5,-3.0,-1.09483
-9.0,-3.0,-1.09482
-8.5,-3.0,-1.09481
-8.0,-3.0,-1.09478
-7.5,-3.0,-1.09473
-7.0,-3.0,-1.09464
-6.5,-3.0,-1.09451
-6.0,-3.0,-1.09428
-5.5,-3.0,-1.09392
-5.0,-3.0,-1.09331
-4.5,-3.0,-1.09231
-4.0,-3.0,-1.09067
-3.5,-3.0,-1.08796
-3.0,-3.0,-1.08352
-2.5,-3.0,-1.07622
-2.0,-3.0,-1.06429
-1.5,-3.0,-1.04489
-1.0,-3.0,-1.01359
-0.5,-3.0,-0.9638
0.0,-3.0,-0.88633
0.5,-3.0,-0.76984
1.0,-3.0,-0.60355
1.5,-3.0,-0.38326
2.0,-3.0,-0.11931
2.5,-3.0,0.16031
3.0,-3.0,0.41929
3.5,-3.0,0.63034
4.0,-3.0,0.78505
4.5,-3.0,0.89015
5.0,-3.0,0.95816
5.5,-3.0,1.00093
6.0,-3.0,1.02741
6.5,-3.0,1.04365
7.0,-3.0,1.05357
7.5,-3.0,1.05961
8.0,-3.0,1.06328
8.5,-3.0,1.06551
9.0,-3.0,1.06687
9.5,-3.0,1.06769
10.0,-3.0,1.06819
-10.0,-2.5,-1.1517
-9.5,-2.5,-1.15169
-9.0,-2.5,-1.15167
-8.5,-2.5,-1.15164
-8.0,-2.5,-1.15159
-7.5,-2.5,-1.15151
-7.0,-2.5,-1.15137
-6.5,-2.5,-1.15114
-6.0,-2.5,-1.15077
-5.5,-2.5,-1.15016
-5.0,-2.5,-1.14915
-4.5,-2.5,-1.14748
-4.0,-2.5,-1.14474
-3.5,-2.5,-1.14024
-3.0,-2.5,-1.13286
-2.5,-2.5,-1.12078
-2.0,-2.5,-1.10113
-1.5,-2.5,-1.06944
-1.0,-2.5,-1.01903
-0.5,-2.5,-0.94059
0.0,-2.5,-0.82263
0.5,-2.5,-0.6542
1.0,-2.5,-0.43101
1.5,-2.5,-0.16349
2.0,-2.5,0.12007
2.5,-2.5,0.3829
3.0,-2.5,0.59726
3.5,-2.5,0.75455
4.0,-2.5,0.8615
4.5,-2.5,0.93075
5.0,-2.5,0.97433
5.5,-2.5,1.00132
6.0,-2.5,1.01788
6.5,-2.5,1.02799
7.0,-2.5,1.03415
7.5,-2.5,1.0379
8.0,-2.5,1.04017
8.5,-2.5,1.04155
9.0,-2.5,1.04239
9.5,-2.5,1.0429
10.0,-2.5,1.04321
-10.0,-2.0,-1.23838
-9.5,-2.0,-1.23836
-9.0,-2.0,-1.23833
-8.5,-2.0,-1.23828
-8.0,-2.0,-1.23819
-7.5,-2.0,-1.23805
-7.0,-2.0,-1.23782
-6.5,-2.0,-1.23744
-6.0,-2.0,-1.23682
-5.5,-2.0,-1.23579
-5.0,-2.0,-1.23409
-4.5,-2.0,-1.2313
-4.0,-2.0,-1.22672
-3.5,-2.0,-1.21919
-3.0,-2.0,-1.20689
-2.5,-2.0,-1.18688
-2.0,-2.0,-1.15459
-1.5,-2.0,-1.10324
-1.0,-2.0,-1.02331
-0.5,-2.0,-0.9031
0.0,-2.0,-0.73141
0.5,-2.0,-0.50382
1.0,-2.0,-0.23085
1.5,-2.0,0.05872
2.0,-2.0,0.32742
2.5,-2.0,0.54684
3.0,-2.0,0.70806
3.5,-2.0,0.81782
4.0,-2.0,0.88897
4.5,-2.0,0.93378
5.0,-2.0,0.96154
5.5,-2.0,0.97859
6.0,-2.0,0.989
6.5,-2.0,0.99534
7.0,-2.0,0.9992
7.5,-2.0,1.00154
8.0,-2.0,1.00296
8.5,-2.0,1.00382
9.0,-2.0,1.00435
9.5,-2.0,1.00466
10.0,-2.0,1.00486
-10.0,-1.5,-1.3648
-9.5,-1.5,-1.36477
-9.0,-1.5,-1.36472
-8.5,-1.5,-1.36463
-8.0,-1.5,-1.36449
-7.5,-1.5,-1.36425
-7.0,-1.5,-1.36386
-6.5,-1.5,-1.36322
-6.0,-1.5,-1.36216
-5.5,-1.5,-1.36042
-5.0,-1.5,-1.35756
-4.5,-1.5,-1.35285
-4.0,-1.5,-1.34513
-3.5,-1.5,-1.33249
-3.0,-1.5,-1.31194
-2.5,-1.5,-1.2788
-2.0,-1.5,-1.22606
-1.5,-1.5,-1.14396
-1.0,-1.5,-1.02047
-0.5,-1.5,-0.84403
0.0,-1.5,-0.61001
0.5,-1.5,-0.3291
1.0,-1.5,-0.03075
1.5,-1.5,0.2465
2.0,-1.5,0.4733
2.5,-1.5,0.64025
3.0,-1.5,0.75411
3.5,-1.5,0.82802
4.0,-1.5,0.87463
4.5,-1.5,0.90352
5.0,-1.5,0.92127
5.5,-1.5,0.93212
6.0,-1.5,0.93873
6.5,-1.5,0.94275
7.0,-1.5,0.94519
7.5,-1.5,0.94667
8.0,-1.5,0.94757
8.5,-1.5,0.94811
9.0,-1.5,0.94844
9.5,-1.5,0.94865
10.0,-1.5,0.94877
-10.0,-1.0,-1.5378
-9.5,-1.0,-1.53774
-9.0,-1.0,-1.53765
-8.5,-1.0,-1.53751
-8.0,-1.0,-1.53726
-7.5,-1.0,-1.53686
-7.0,-1.0,-1.53619
-6.5,-1.0,-1.5351
-6.0,-1.0,-1.5333
-5.5,-1.0,-1.53033
-5.0,-1.0,-1.52545
-4.5,-1.0,-1.51745
-4.0,-1.0,-1.50437
-3.5,-1.0,-1.48309
-3.0,-1.0,-1.44876
-2.5,-1.0,-1.39413
-2.0,-1.0,-1.30907
-1.5,-1.0,-1.18109
-1.0,-1.0,-0.99815
-0.5,-1.0,-0.75532
0.0,-1.0,-0.46354
0.5,-1.0,-0.15319
1.0,-1.0,0.13575
1.5,-1.0,0.37266
2.0,-1.0,0.54745
2.5,-1.0,0.66692
3.0,-1.0,0.74462
3.5,-1.0,0.79368
4.0,-1.0,0.82413
4.5,-1.0,0.84285
5.0,-1.0,0.85429
5.5,-1.0,0.86126
6.0,-1.0,0.8655
6.5,-1.0,0.86807
7.0,-1.0,0.86964
7.5,-1.0,0.87059
8.0,-1.0,0.87116
8.5,-1.0,0.87151
9.0,-1.0,0.87173
9.5,-1.0,0.87185
10.0,-1.0,0.87193
-10.0,-0.5,-1.75494
-9.5,-0.5,-1.75484
-9.0,-0.5,-1.75469
-8.5,-0.5,-1.75443
-8.0,-0.5,-1.75401
-7.5,-0.5,-1.75332
-7.0,-0.5,-1.75218
-6.5,-0.5,-1.7503
-6.0,-0.5,-1.7472
-5.5,-0.5,-1.74212
-5.0,-0.5,-1.73377
-4.5,-0.5,-1.72012
-4.0,-0.5,-1.69792
-3.5,-0.5,-1.6621
-3.0,-0.5,-1.60509
-2.5,-0.5,-1.51633
-2.0,-0.5,-1.3827
-1.5,-0.5,-1.1916
-1.0,-0.5,-0.93773
-0.5,-0.5,-0.6323
0.0,-0.5,-0.30689
0.5,-0.5,-0.00325
1.0,-0.5,0.24633
1.5,-0.5,0.43097
2.0,-0.5,0.55748
2.5,-0.5,0.63994
3.0,-0.5,0.69207
3.5,-0.5,0.72447
4.0,-0.5,0.7444
4.5,-0.5,0.75659
5.0,-0.5,0.76401
5.5,-0.5,0.76853
6.0,-0.5,0.77128
6.5,-0.5,0.77295
7.0,-0.5,0.77396
7.5,-0.5,0.77457
8.0,-0.5,0.77495
8.5,-0.5,0.77517
9.0,-0.5,0.77531
9.5,-0.5,0.77539
10.0,-0.5,0.77544
-10.0,0.0,-1.99975
-9.5,0.0,-1.99959
-9.0,0.0,-1.99932
-8.5,0.0,-1.99888
-8.0,0.0,-1.99816
-7.5,0.0,-1.99696
-7.0,0.0,-1.99499
-6.5,0.0,-1.99175
-6.0,0.0,-1.98643
-5.5,0.0,-1.9777
-5.0,0.0,-1.96341
-4.5,0.0,-1.94017
-4.0,0.0,-1.90267
-3.5,0.0,-1.84299
-3.0,0.0,-1.75003
-2.5,0.0,-1.61005
-2.0,0.0,-1.40974
-1.5,0.0,-1.14341
-1.0,0.0,-0.8226
-0.5,0.0,-0.4802
0.0,0.0,-0.16
0.5,0.0,0.10388
1.0,0.0,0.29963
1.5,0.0,0.43408
2.0,0.0,0.52189
2.5,0.0,0.5775
3.0,0.0,0.61209
3.5,0.0,0.63339
4.0,0.0,0.64642
4.5,0.0,0.65436
5.0,0.0,0.65919
5.5,0.0,0.66213
6.0,0.0,0.66391
6.5,0.0,0.665
7.0,0.0,0.66565
7.5,0.0,0.66605
8.0,0.0,0.66629
8.5,0.0,0.66644
9.0,0.0,0.66653
9.5,0.0,0.66658
10.0,0.0,0.66662
-10.0,0.5,-2.24449
-9.5,0.5,-2.24421
-9.0,0.5,-2.24375
-8.5,0.5,-2.24299
-8.0,0.5,-2.24174
-7.5,0.5,-2.23969
-7.0,0.5,-2.23631
-6.5,0.5,-2.23075
-6.0,0.5,-2.22162
-5.5,0.5,-2.2067
-5.0,0.5,-2.18242
-4.5,0.5,-2.14324
-4.0,0.5,-2.08088
-3.5,0.5,-1.98373
-3.0,0.5,-1.83739
-2.5,0.5,-1.62788
-2.0,0.5,-1.3491
-1.5,0.5,-1.0129
-1.0,0.5,-0.65351
-0.5,0.5,-0.31675
0.0,0.5,-0.03857
0.5,0.5,0.16828
1.0,0.5,0.31068
1.5,0.5,0.40384
2.0,0.5,0.46293
2.5,0.5,0.49972
3.0,0.5,0.52238
3.5,0.5,0.53625
4.0,0.5,0.54471
4.5,0.5,0.54985
5.0,0.5,0.55298
5.5,0.5,0.55488
6.0,0.5,0.55604
6.5,0.5,0.55673
7.0,0.5,0.55716
7.5,0.5,0.55742
8.0,0.5,0.55757
8.5,0.5,0.55767
9.0,0.5,0.55773
9.5,0.5,0.55776
10.0,0.5,0.55778
-10.0,1.0,-2.46138
-9.5,1.0,-2.4609
-9.0,1.0,-2.46012
-8.5,1.0,-2.45882
-8.0,1.0,-2.45669
-7.5,1.0,-2.45318
-7.0,1.0,-2.44741
-6.5,1.0,-2.43794
-6.0,1.0,-2.42245
-5.5,1.0,-2.39725
-5.0,1.0,-2.35659
-4.5,1.0,-2.29185
-4.0,1.0,-2.19099
-3.5,1.0,-2.039
-3.0,1.0,-1.82133
-2.5,1.0,-1.5315
-2.0,1.0,-1.18166
-1.5,1.0,-0.80721
-1.0,1.0,-0.45575
-0.5,1.0,-0.1649
0.0,1.0,0.0518
0.5,1.0,0.20124
1.0,1.0,0.29916
1.5,1.0,0.36132
2.0,1.0,0.40006
2.5,1.0,0.42393
3.0,1.0,0.43855
3.5,1.0,0.44746
4.0,1.0,0.45289
4.5,1.0,0.45619
5.0,1.0,0.45819
5.5,1.0,0.45941
6.0,1.0,0.46014
6.5,1.0,0.46059
7.0,1.0,0.46086
7.5,1.0,0.46103
8.0,1.0,0.46113
8.5,1.0,0.46119
9.0,1.0,0.46122
9.5,1.0,0.46125
10.0,1.0,0.46126
-10.0,1.5,-2.6339
-9.5,1.5,-2.63309
-9.0,1.5,-2.63176
-8.5,1.5,-2.62956
-8.0,1.5,-2.62595
-7.5,1.5,-2.62001
-7.0,1.5,-2.61027
-6.5,1.5,-2.59433
-6.0,1.5,-2.5684
-5.5,1.5,-2.52655
-5.0,1.5,-2.45992
-4.5,1.5,-2.35609
-4.0,1.5,-2.19962
-3.5,1.5,-1.97544
-3.0,1.5,-1.67682
-2.5,1.5,-1.3161
-2.0,1.5,-0.92965
-1.5,1.5,-0.5665
-1.0,1.5,-0.26554
-0.5,1.5,-0.041
0.0,1.5,0.11405
0.5,1.5,0.21576
1.0,1.5,0.28038
1.5,1.5,0.32066
2.0,1.5,0.3455
2.5,1.5,0.36071
3.0,1.5,0.36999
3.5,1.5,0.37564
4.0,1.5,0.37907
4.5,1.5,0.38116
5.0,1.5,0.38243
5.5,1.5,0.38319
6.0,1.5,0.38366
6.5,1.5,0.38394
7.0,1.5,0.38411
7.5,1.5,0.38422
8.0,1.5,0.38428
8.5,1.5,0.38432
9.0,1.5,0.38434
9.5,1.5,0.38436
10.0,1.5,0.38437
-10.0,2.0,-2.75949
-9.5,2.0,-2.75813
-9.0,2.0,-2.75589
-8.5,2.0,-2.75221
-8.0,2.0,-2.74615
-7.5,2.0,-2.7362
-7.0,2.0,-2.71993
-6.5,2.0,-2.69347
-6.0,2.0,-2.65075
-5.5,2.0,-2.58274
-5.0,2.0,-2.47675
-4.5,2.0,-2.31699
-4.0,2.0,-2.08806
-3.5,2.0,-1.78301
-3.0,2.0,-1.41435
-2.5,2.0,-1.01912
-2.0,2.0,-0.64742
-1.5,2.0,-0.33908
-1.0,2.0,-0.10881
-0.5,2.0,0.05034
0.0,2.0,0.15481
0.5,2.0,0.22123
1.0,2.0,0.26265
1.5,2.0,0.28819
2.0,2.0,0.30383
2.5,2.0,0.31338
3.0,2.0,0.31919
3.5,2.0,0.32272
4.0,2.0,0.32487
4.5,2.0,0.32617
5.0,2.0,0.32696
5.5,2.0,0.32744
6.0,2.0,0.32773
6.5,2.0,0.32791
7.0,2.0,0.32802
7.5,2.0,0.32808
8.0,2.0,0.32812
8.5,2.0,0.32814
9.0,2.0,0.32816
9.5,2.0,0.32817
10.0,2.0,0.32817
-10.0,2.5,-2.84478
-9.5,2.5,-2.8425
-9.0,2.5,-2.83877
-8.5,2.5,-2.83262
-8.0,2.5,-2.82254
-7.5,2.5,-2.80605
-7.0,2.5,-2.77921
-6.5,2.5,-2.7359
-6.0,2.5,-2.66694
-5.5,2.5,-2.55947
-5.0,2.5,-2.39746
-4.5,2.5,-2.16527
-4.0,2.5,-1.85581
-3.5,2.5,-1.4817
-3.0,2.5,-1.08047
-2.5,2.5,-0.7029
-2.0,2.5,-0.3895
-1.5,2.5,-0.1553
-1.0,2.5,0.00666
-0.5,2.5,0.11303
0.0,2.5,0.18067
0.5,2.5,0.22287
1.0,2.5,0.24889
1.5,2.5,0.26484
2.0,2.5,0.27457
2.5,2.5,0.28049
3.0,2.5,0.28409
3.5,2.5,0.28628
4.0,2.5,0.2876
4.5,2.5,0.28841
5.0,2.5,0.2889
5.5,2.5,0.28919
6.0,2.5,0.28937
6.5,2.5,0.28948
7.0,2.5,0.28955
7.5,2.5,0.28959
8.0,2.5,0.28961
8.5,2.5,0.28963
9.0,2.5,0.28964
9.5,2.5,0.28964
10.0,2.5,0.28965
-10.0,3.0,-2.89932
-9.5,3.0,-2.89555
-9.0,3.0,-2.88935
-8.5,3.0,-2.87917
-8.0,3.0,-2.86253
-7.5,3.0,-2.83546
-7.0,3.0,-2.79176
-6.5,3.0,-2.72218
-6.0,3.0,-2.61373
-5.5,3.0,-2.45025
-5.0,3.0,-2.21592
-4.5,3.0,-1.90356
-4.0,3.0,-1.52589
-3.5,3.0,-1.12071
-3.0,3.0,-0.73929
-2.5,3.0,-0.42257
-2.0,3.0,-0.18579
-1.5,3.0,-0.02199
-1.0,3.0,0.08562
-0.5,3.0,0.15407
0.0,3.0,0.19678
0.5,3.0,0.22312
1.0,3.0,0.23926
1.5,3.0,0.24911
2.0,3.0,0.2551
2.5,3.0,0.25875
3.0,3.0,0.26096
3.5,3.0,0.26231
4.0,3.0,0.26312
4.5,3.0,0.26362
5.0,3.0,0.26392
5.5,3.0,0.2641
6.0,3.0,0.26421
6.5,3.0,0.26428
7.0,3.0,0.26432
7.5,3.0,0.26434
8.0,3.0,0.26436
8.5,3.0,0.26436
9.0,3.0,0.26437
9.5,3.0,0.26437
10.0,3.0,0.26438
-10.0,3.5,-2.93172
-9.5,3.5,-2.92548
-9.0,3.5,-2.91525
-8.5,3.5,-2.89852
-8.0,3.5,-2.87129
-7.5,3.5,-2.82734
-7.0,3.5,-2.75737
-6.5,3.5,-2.6483
-6.0,3.5,-2.48388
-5.5,3.5,-2.24819
-5.0,3.5,-1.93399
-4.5,3.5,-1.55404
-4.0,3.5,-1.14634
-3.5,3.5,-0.76248
-3.0,3.5,-0.44364
-2.5,3.5,-0.20522
-2.0,3.5,-0.04024
-1.5,3.5,0.06816
-1.0,3.5,0.13712
-0.5,3.5,0.18015
0.0,3.5,0.2067
0.5,3.5,0.22296
1.0,3.5,0.23289
1.5,3.5,0.23893
2.0,3.5,0.2426
2.5,3.5,0.24483
3.0,3.5,0.24619
3.5,3.5,0.24701
4.0,3.5,0.24751
4.5,3.5,0.24781
5.0,3.5,0.24799
5.5,3.5,0.24811
6.0,3.5,0.24817
6.5,3.5,0.24821
7.0,3.5,0.24824
7.5,3.5,0.24825
8.0,3.5,0.24826
8.5,3.5,0.24827
9.0,3.5,0.24827
9.5,3.5,0.24827
10.0,3.5,0.24828
-10.0,4.0,-2.94808
-9.5,4.0,-2.93781
-9.0,4.0,-2.92102
-8.5,4.0,-2.89369
-8.0,4.0,-2.84959
-7.5,4.0,-2.77937
-7.0,4.0,-2.66991
-6.5,4.0,-2.5049
-6.0,4.0,-2.26836
-5.5,4.0,-1.95301
-5.0,4.0,-1.57164
-4.5,4.0,-1.16237
-4.0,4.0,-0.77698
-3.5,4.0,-0.45682
-3.0,4.0,-0.21737
-2.5,4.0,-0.05165
-2.0,4.0,0.05724
-1.5,4.0,0.12653
-1.0,4.0,0.16976
-0.5,4.0,0.19643
0.0,4.0,0.21278
0.5,4.0,0.22275
1.0,4.0,0.22882
1.5,4.0,0.23251
2.0,4.0,0.23475
2.5,4.0,0.23611
3.0,4.0,0.23694
3.5,4.0,0.23744
4.0,4.0,0.23774
4.5,4.0,0.23793
5.0,4.0,0.23804
5.5,4.0,0.23811
6.0,4.0,0.23815
6.5,4.0,0.23817
7.0,4.0,0.23819
7.5,4.0,0.2382
8.0,4.0,0.2382
8.5,4.0,0.2382
9.0,4.0,0.23821
9.5,4.0,0.23821
10.0,4.0,0.23821
-10.0,4.5,-2.95175
-9.5,4.5,-2.93493
-9.0,4.5,-2.90754
-8.5,4.5,-2.86334
-8.0,4.5,-2.79297
-7.5,4.5,-2.68327
-7.0,4.5,-2.5179
-6.5,4.5,-2.28083
-6.0,4.5,-1.96477
-5.5,4.5,-1.58251
-5.0,4.5,-1.17228
-4.5,4.5,-0.78594
-4.0,4.5,-0.46496
-3.5,4.5,-0.22488
-3.0,4.5,-0.05871
-2.5,4.5,0.05049
-2.0,4.5,0.11998
-1.5,4.5,0.16334
-1.0,4.5,0.19009
-0.5,4.5,0.20648
0.0,4.5,0.21648
0.5,4.5,0.22257
1.0,4.5,0.22627
1.5,4.5,0.22852
2.0,4.5,0.22988
2.5,4.5,0.23071
3.0,4.5,0.23121
3.5,4.5,0.23152
4.0,4.5,0.2317
4.5,4.5,0.23182
5.0,4.5,0.23188
5.5,4.5,0.23192
6.0,4.5,0.23195
6.5,4.5,0.23196
7.0,4.5,0.23197
7.5,4.5,0.23198
8.0,4.5,0.23198
8.5,4.5,0.23199
9.0,4.5,0.23199
9.5,4.5,0.23199
10.0,4.5,0.23199
-10.0,5.0,-2.94346
-9.5,5.0,-2.91603
-9.0,5.0,-2.87178
-8.5,5.0,-2.80131
-8.0,5.0,-2.69147
-7.5,5.0,-2.52587
-7.0,5.0,-2.28848
-6.5,5.0,-1.97198
-6.0,5.0,-1.58919
-5.5,5.0,-1.17836
-5.0,5.0,-0.79143
-4.5,5.0,-0.46996
-4.0,5.0,-0.22948
-3.5,5.0,-0.06303
-3.0,5.0,0.04636
-2.5,5.0,0.11596
-2.0,5.0,0.1594
-1.5,5.0,0.1862
-1.0,5.0,0.20262
-0.5,5.0,0.21264
0.0,5.0,0.21874
0.5,5.0,0.22244
1.0,5.0,0.2247
1.5,5.0,0.22606
2.0,5.0,0.22689
2.5,5.0,0.2274
3.0,5.0,0.2277
3.5,5.0,0.22789
4.0,5.0,0.228
4.5,5.0,0.22807
5.0,5.0,0.22811
5.5,5.0,0.22813
6.0,5.0,0.22815
6.5,5.0,0.22816
7.0,5.0,0.22816
7.5,5.0,0.22817
8.0,5.0,0.22817
8.5,5.0,0.22817
9.0,5.0,0.22817
9.5,5.0,0.22817
10.0,5.0,0.22817
-10.0,5.5,-2.92122
-9.5,5.5,-2.87693
-9.0,5.5,-2.8064
-8.5,5.5,-2.69647
-8.0,5.5,-2.53074
-7.5,5.5,-2.29315
-7.0,5.5,-1.97638
-6.5,5.5,-1.59326
-6.0,5.5,-1.18207
-5.5,5.5,-0.79479
-5.0,5.5,-0.47301
-4.5,5.5,-0.2323
-4.0,5.5,-0.06568
-3.5,5.5,0.04383
-3.0,5.5,0.11351
-2.5,5.5,0.15699
-2.0,5.5,0.18382
-1.5,5.5,0.20026
-1.0,5.5,0.21029
-0.5,5.5,0.21639
0.0,5.5,0.22011
0.5,5.5,0.22236
1.0,5.5,0.22373
1.5,5.5,0.22456
2.0,5.5,0.22506
2.5,5.5,0.22537
3.0,5.5,0.22555
3.5,5.5,0.22567
4.0,5.5,0.22573
4.5,5.5,0.22578
5.0,5.5,0.2258
5.5,5.5,0.22582
6.0,5.5,0.22583
6.5,5.5,0.22583
7.0,5.5,0.22583
7.5,5.5,0.22584
8.0,5.5,0.22584
8.5,5.5,0.22584
9.0,5.5,0.22584
9.5,5.5,0.22584
10.0,5.5,0.22584
-10.0,6.0,-2.88007
-9.5,6.0,-2.80951
-9.0,6.0,-2.69952
-8.5,6.0,-2.5337
-8.0,6.0,-2.296
-7.5,6.0,-1.97907
-7.0,6.0,-1.59574
-6.5,6.0,-1.18433
-6.0,6.0,-0.79684
-5.5,6.0,-0.47487
-5.0,6.0,-0.23401
-4.5,6.0,-0.06729
-4.0,6.0,0.04229
-3.5,6.0,0.11201
-3.0,6.0,0.15552
-2.5,6.0,0.18237
-2.0,6.0,0.19882
-1.5,6.0,0.20886
-1.0,6.0,0.21497
-0.5,6.0,0.21868
0.0,6.0,0.22094
0.5,6.0,0.22231
1.0,6.0,0.22314
1.5,6.0,0.22364
2.0,6.0,0.22395
2.5,6.0,0.22413
3.0,6.0,0.22425
3.5,6.0,0.22431
4.0,6.0,0.22436
4.5,6.0,0.22438
5.0,6.0,0.2244
5.5,6.0,0.22441
6.0,6.0,0.22441
6.5,6.0,0.22441
7.0,6.0,0.22442
7.5,6.0,0.22442
8.0,6.0,0.22442
8.5,6.0,0.22442
9.0,6.0,0.22442
9.5,6.0,0.22442
10.0,6.0,0.22442
-10.0,6.5,-2.81139
-9.5,6.5,-2.70137
-9.0,6.5,-2.53551
-8.5,6.5,-2.29773
-8.0,6.5,-1.9807
-7.5,6.5,-1.59725
-7.0,6.5,-1.1857
-6.5,6.5,-0.79808
-6.0,6.5,-0.476
-5.5,6.5,-0.23505
-5.0,6.5,-0.06827
-4.5,6.5,0.04135
-4.0,6.5,0.1111
-3.5,6.5,0.15463
-3.0,6.5,0.18149
-2.5,6.5,0.19794
-2.0,6.5,0.20799
-1.5,6.5,0.2141
-1.0,6.5,0.21782
-0.5,6.5,0.22007
0.0,6.5,0.22144
0.5,6.5,0.22227
1.0,6.5,0.22278
1.5,6.5,0.22308
2.0,6.5,0.22327
2.5,6.5,0.22338
3.0,6.5,0.22345
3.5,6.5,0.22349
4.0,6.5,0.22352
4.5,6.5,0.22353
5.0,6.5,0.22354
5.5,6.5,0.22355
6.0,6.5,0.22355
6.5,6.5,0.22355
7.0,6.5,0.22355
7.5,6.5,0.22356
8.0,6.5,0.22356
8.5,6.5,0.22356
9.0,6.5,0.22356
9.5,6.5,0.22356
10.0,6.5,0.22356
-10.0,7.0,-2.7025
-9.5,7.0,-2.5366
-9.0,7.0,-2.29878
-8.5,7.0,-1.98169
-8.0,7.0,-1.59817
-7.5,7.0,-1.18654
-7.0,7.0,-0.79883
-6.5,7.0,-0.47668
-6.0,7.0,-0.23568
-5.5,7.0,-0.06886
-5.0,7.0,0.04078
-4.5,7.0,0.11055
-4.0,7.0,0.15409
-3.5,7.0,0.18095
-3.0,7.0,0.19741
-2.5,7.0,0.20746
-2.0,7.0,0.21357
-1.5,7.0,0.21729
-1.0,7.0,0.21955
-0.5,7.0,0.22092
0.0,7.0,0.22175
0.5,7.0,0.22225
1.0,7.0,0.22256
1.5,7.0,0.22275
2.0,7.0,0.22286
2.5,7.0,0.22293
3.0,7.0,0.22297
3.5,7.0,0.22299
4.0,7.0,0.22301
4.5,7.0,0.22302
5.0,7.0,0.22302
5.5,7.0,0.22303
6.0,7.0,0.22303
6.5,7.0,0.22303
7.0,7.0,0.22303
7.5,7.0,0.22303
8.0,7.0,0.22303
8.5,7.0,0.22303
9.0,7.0,0.22303
9.5,7.0,0.22303
10.0,7.0,0.22303
-10.0,7.5,-2.53727
-9.5,7.5,-2.29942
-9.0,7.5,-1.98229
-8.5,7.5,-1.59873
-8.0,7.5,-1.18704
-7.5,7.5,-0.79929
-7.0,7.5,-0.4771
-6.5,7.5,-0.23607
-6.0,7.5,-0.06922
-5.5,7.5,0.04044
-5.0,7.5,0.11022
-4.5,7.5,0.15376
-4.0,7.5,0.18063
-3.5,7.5,0.19709
-3.0,7.5,0.20714
-2.5,7.5,0.21325
-2.0,7.5,0.21697
-1.5,7.5,0.21923
-1.0,7.5,0.2206
-0.5,7.5,0.22143
0.0,7.5,0.22194
0.5,7.5,0.22224
1.0,7.5,0.22243
1.5,7.5,0.22254
2.0,7.5,0.22261
2.5,7.5,0.22265
3.0,7.5,0.22267
3.5,7.5,0.22269
4.0,7.5,0.2227
4.5,7.5,0.2227
5.0,7.5,0.22271
5.5,7.5,0.22271
6.0,7.5,0.22271
6.5,7.5,0.22271
7.0,7.5,0.22271
7.5,7.5,0.22271
8.0,7.5,0.22271
8.5,7.5,0.22271
9.0,7.5,0.22271
9.5,7.5,0.22271
10.0,7.5,0.22271
-10.0,8.0,-2.29981
-9.5,8.0,-1.98266
-9.0,8.0,-1.59906
-8.5,8.0,-1.18735
-8.0,8.0,-0.79957
-7.5,8.0,-0.47735
-7.0,8.0,-0.2363
-6.5,8.0,-0.06944
-6.0,8.0,0.04023
-5.5,8.0,0.11001
-5.0,8.0,0.15356
-4.5,8.0,0.18043
-4.0,8.0,0.1969
-3.5,8.0,0.20694
-3.0,8.0,0.21306
-2.5,8.0,0.21678
-2.0,8.0,0.21903
-1.5,8.0,0.22041
-1.0,8.0,0.22124
-0.5,8.0,0.22174
0.0,8.0,0.22205
0.5,8.0,0.22223
1.0,8.0,0.22235
1.5,8.0,0.22241
2.0,8.0,0.22246
2.5,8.0,0.22248
3.0,8.0,0.2225
3.5,8.0,0.22251
4.0,8.0,0.22251
4.5,8.0,0.22252
5.0,8.0,0.22252
5.5,8.0,0.22252
6.0,8.0,0.22252
6.5,8.0,0.22252
7.0,8.0,0.22252
7.5,8.0,0.22252
8.0,8.0,0.22252
8.5,8.0,0.22252
9.0,8.0,0.22252
9.5,8.0,0.22252
10.0,8.0,0.22252
-10.0,8.5,-1.98288
-9.5,8.5,-1.59927
-9.0,8.5,-1.18754
-8.5,8.5,-0.79974
-8.0,8.5,-0.47751
-7.5,8.5,-0.23644
-7.0,8.5,-0.06957
-6.5,8.5,0.0401
-6.0,8.5,0.10989
-5.5,8.5,0.15344
-5.0,8.5,0.18031
-4.5,8.5,0.19678
-4.0,8.5,0.20682
-3.5,8.5,0.21294
-3.0,8.5,0.21666
-2.5,8.5,0.21892
-2.0,8.5,0.22029
-1.5,8.5,0.22112
-1.0,8.5,0.22162
-0.5,8.5,0.22193
0.0,8.5,0.22212
0.5,8.5,0.22223
1.0,8.5,0.2223
1.5,8.5,0.22234
2.0,8.5,0.22236
2.5,8.5,0.22238
3.0,8.5,0.22239
3.5,8.5,0.22239
4.0,8.5,0.2224
4.5,8.5,0.2224
5.0,8.5,0.2224
5.5,8.5,0.2224
6.0,8.5,0.2224
6.5,8.5,0.2224
7.0,8.5,0.2224
7.5,8.5,0.2224
8.0,8.5,0.2224
8.5,8.5,0.2224
9.0,8.5,0.2224
9.5,8.5,0.2224
10.0,8.5,0.2224
-10.0,9.0,-1.59939
-9.5,9.0,-1.18765
-9.0,9.0,-0.79984
-8.5,9.0,-0.4776
-8.0,9.0,-0.23653
-7.5,9.0,-0.06965
-7.0,9.0,0.04002
-6.5,9.0,0.10981
-6.0,9.0,0.15337
-5.5,9.0,0.18024
-5.0,9.0,0.1967
-4.5,9.0,0.20675
-4.0,9.0,0.21287
-3.5,9.0,0.21659
-3.0,9.0,0.21885
-2.5,9.0,0.22022
-2.0,9.0,0.22105
-1.5,9.0,0.22155
-1.0,9.0,0.22186
-0.5,9.0,0.22205
0.0,9.0,0.22216
0.5,9.0,0.22223
1.0,9.0,0.22227
1.5,9.0,0.22229
2.0,9.0,0.22231
2.5,9.0,0.22232
3.0,9.0,0.22232
3.5,9.0,0.22233
4.0,9.0,0.22233
4.5,9.0,0.22233
5.0,9.0,0.22233
5.5,9.0,0.22233
6.0,9.0,0.22233
6.5,9.0,0.22233
7.0,9.0,0.22233
7.5,9.0,0.22233
8.0,9.0,0.22233
8.5,9.0,0.22233
9.0,9.0,0.22233
9.5,9.0,0.22233
10.0,9.0,0.22233
-10.0,9.5,-1.18772
-9.5,9.5,-0.7999
-9.0,9.5,-0.47765
-8.5,9.5,-0.23658
-8.0,9.5,-0.0697
-7.5,9.5,0.03998
-7.0,9.5,0.10977
-6.5,9.5,0.15332
-6.0,9.5,0.1802
-5.5,9.5,0.19666
-5.0,9.5,0.20671
-4.5,9.5,0.21283
-4.0,9.5,0.21654
-3.5,9.5,0.2188
-3.0,9.5,0.22017
-2.5,9.5,0.22101
-2.0,9.5,0.22151
-1.5,9.5,0.22182
-1.0,9.5,0.222
-0.5,9.5,0.22212
0.0,9.5,0.22218
0.5,9.5,0.22222
1.0,9.5,0.22225
1.5,9.5,0.22227
2.0,9.5,0.22227
2.5,9.5,0.22228
3.0,9.5,0.22228
3.5,9.5,0.22229
4.0,9.5,0.22229
4.5,9.5,0.22229
5.0,9.5,0.22229
5.5,9.5,0.22229
6.0,9.5,0.22229
6.5,9.5,0.22229
7.0,9.5,0.22229
7.5,9.5,0.22229
8.0,9.5,0.22229
8.5,9.5,0.22229
9.0,9.5,0.22229
9.5,9.5,0.22229
10.0,9.5,0.22229
-10.0,10.0,-0.79994
-9.5,10.0,-0.47769
-9.0,10.0,-0.23661
-8.5,10.0,-0.06973
-8.0,10.0,0.03995
-7.5,10.0,0.10974
-7.0,10.0,0.1533
-6.5,10.0,0.18017
-6.0,10.0,0.19663
-5.5,10.0,0.20668
-5.0,10.0,0.2128
-4.5,10.0,0.21652
-4.0,10.0,0.21878
-3.5,10.0,0.22015
-3.0,10.0,0.22098
-2.5,10.0,0.22148
-2.0,10.0,0.22179
-1.5,10.0,0.22198
-1.0,10.0,0.22209
-0.5,10.0,0.22216
0.0,10.0,0.2222
0.5,10.0,0.22222
1.0,10.0,0.22224
1.5,10.0,0.22225
2.0,10.0,0.22225
2.5,10.0,0.22226
3.0,10.0,0.22226
3.5,10.0,0.22226
4.0,10.0,0.22226
4.5,10.0,0.22226
5.0,10.0,0.22226
5.5,10.0,0.22226
6.0,10.0,0.22226
6.5,10.0,0.22226
7.0,10.0,0.22226
7.5,10.0,0.22226
8.0,10.0,0.22226
8.5,10.0,0.22226
9.0,10.0,0.22226
9.5,10.0,0.22226
10.0,10.0,0.22226
