theta0,theta1,bias
-10.0,-10.0,2.99995
-9.5,-10.0,2.99995
-9.0,-10.0,2.99995
-8.5,-10.0,2.99995
-8.0,-10.0,2.99995
-7.5,-10.0,2.99995
-7.0,-10.0,2.99995
-6.5,-10.0,2.99995
-6.0,-10.0,2.99995
-5.5,-10.0,2.99995
-5.0,-10.0,2.99995
-4.5,-10.0,2.99995
-4.0,-10.0,2.99995
-3.5,-10.0,2.99995
-3.0,-10.0,2.99995
-2.5,-10.0,2.99995
-2.0,-10.0,2.99995
-1.5,-10.0,2.99996
-1.0,-10.0,2.99996
-0.5,-10.0,2.99998
0.0,-10.0,3.00009
0.5,-10.0,3.00056
1.0,-10.0,3.00269
1.5,-10.0,3.01217
2.0,-10.0,3.05391
2.5,-10.0,3.22753
3.0,-10.0,3.80678
3.5,-10.0,4.86733
4.0,-10.0,5.64235
4.5,-10.0,5.91202
5.0,-10.0,5.97988
5.5,-10.0,5.99545
6.0,-10.0,5.99895
6.5,-10.0,5.99973
7.0,-10.0,5.9999
7.5,-10.0,5.99994
8.0,-10.0,5.99995
8.5,-10.0,5.99995
9.0,-10.0,5.99995
9.5,-10.0,5.99995
10.0,-10.0,5.99995
-10.0,-9.5,2.99993
-9.5,-9.5,2.99993
-9.0,-9.5,2.99993
-8.5,-9.5,2.99993
-8.0,-9.5,2.99993
-7.5,-9.5,2.99993
-7.0,-9.5,2.99993
-6.5,-9.5,2.99993
-6.0,-9.5,2.99993
-5.5,-9.5,2.99993
-5.0,-9.5,2.99993
-4.5,-9.5,2.99993
-4.0,-9.5,2.99993
-3.5,-9.5,2.99993
-3.0,-9.5,2.99993
-2.5,-9.5,2.99993
-2.0,-9.5,2.99993
-1.5,-9.5,2.99993
-1.0,-9.5,2.99994
-0.5,-9.5,2.99998
0.0,-9.5,3.00015
0.5,-9.5,3.00093
1.0,-9.5,3.00443
1.5,-9.5,3.02
2.0,-9.5,3.08786
2.5,-9.5,3.35753
3.0,-9.5,4.13255
3.5,-9.5,5.1931
4.0,-9.5,5.77235
4.5,-9.5,5.94597
5.0,-9.5,5.98771
5.5,-9.5,5.99719
6.0,-9.5,5.99931
6.5,-9.5,5.99979
7.0,-9.5,5.99989
7.5,-9.5,5.99992
8.0,-9.5,5.99992
8.5,-9.5,5.99992
9.0,-9.5,5.99993
9.5,-9.5,5.99993
10.0,-9.5,5.99993
-10.0,-9.0,2.99988
-9.5,-9.0,2.99988
-9.0,-9.0,2.99988
-8.5,-9.0,2.99988
-8.0,-9.0,2.99988
-7.5,-9.0,2.99988
-7.0,-9.0,2.99988
-6.5,-9.0,2.99988
-6.0,-9.0,2.99988
-5.5,-9.0,2.99988
-5.0,-9.0,2.99988
-4.5,-9.0,2.99988
-4.0,-9.0,2.99988
-3.5,-9.0,2.99988
-3.0,-9.0,2.99988
-2.5,-9.0,2.99988
-2.0,-9.0,2.99988
-1.5,-9.0,2.99988
-1.0,-9.0,2.9999
-0.5,-9.0,2.99996
0.0,-9.0,3.00025
0.5,-9.0,3.00153
1.0,-9.0,3.00729
1.5,-9.0,3.03284
2.0,-9.0,3.14215
2.5,-9.0,3.54715
3.0,-9.0,4.49988
3.5,-9.0,5.4526
4.0,-9.0,5.8576
4.5,-9.0,5.96692
5.0,-9.0,5.99246
5.5,-9.0,5.99822
6.0,-9.0,5.99951
6.5,-9.0,5.99979
7.0,-9.0,5.99986
7.5,-9.0,5.99987
8.0,-9.0,5.99988
8.5,-9.0,5.99988
9.0,-9.0,5.99988
9.5,-9.0,5.99988
10.0,-9.0,5.99988
-10.0,-8.5,2.9998
-9.5,-8.5,2.9998
-9.0,-8.5,2.9998
-8.5,-8.5,2.9998
-8.0,-8.5,2.9998
-7.5,-8.5,2.9998
-7.0,-8.5,2.9998
-6.5,-8.5,2.9998
-6.0,-8.5,2.9998
-5.5,-8.5,2.9998
-5.0,-8.5,2.9998
-4.5,-8.5,2.9998
-4.0,-8.5,2.9998
-3.5,-8.5,2.9998
-3.0,-8.5,2.9998
-2.5,-8.5,2.9998
-2.0,-8.5,2.9998
-1.5,-8.5,2.9998
-1.0,-8.5,2.99983
-0.5,-8.5,2.99993
0.0,-8.5,3.00041
0.5,-8.5,3.00253
1.0,-8.5,3.01201
1.5,-8.5,3.05376
2.0,-8.5,3.22737
2.5,-8.5,3.80662
3.0,-8.5,4.86717
3.5,-8.5,5.64219
4.0,-8.5,5.91186
4.5,-8.5,5.97972
5.0,-8.5,5.99529
5.5,-8.5,5.99879
6.0,-8.5,5.99957
6.5,-8.5,5.99975
7.0,-8.5,5.99979
7.5,-8.5,5.99979
8.0,-8.5,5.9998
8.5,-8.5,5.9998
9.0,-8.5,5.9998
9.5,-8.5,5.9998
10.0,-8.5,5.9998
-10.0,-8.0,2.99966
-9.5,-8.0,2.99966
-9.0,-8.0,2.99966
-8.5,-8.0,2.99966
-8.0,-8.0,2.99966
-7.5,-8.0,2.99966
-7.0,-8.0,2.99966
-6.5,-8.0,2.99966
-6.0,-8.0,2.99966
-5.5,-8.0,2.99966
-5.0,-8.0,2.99966
-4.5,-8.0,2.99966
-4.0,-8.0,2.99966
-3.5,-8.0,2.99966
-3.0,-8.0,2.99966
-2.5,-8.0,2.99967
-2.0,-8.0,2.99967
-1.5,-8.0,2.99968
-1.0,-8.0,2.99971
-0.5,-8.0,2.99989
0.0,-8.0,3.00067
0.5,-8.0,3.00417
1.0,-8.0,3.01974
1.5,-8.0,3.0876
2.0,-8.0,3.35727
2.5,-8.0,4.13229
3.0,-8.0,5.19284
3.5,-8.0,5.77209
4.0,-8.0,5.94571
4.5,-8.0,5.98745
5.0,-8.0,5.99693
5.5,-8.0,5.99905
6.0,-8.0,5.99953
6.5,-8.0,5.99963
7.0,-8.0,5.99966
7.5,-8.0,5.99966
8.0,-8.0,5.99966
8.5,-8.0,5.99966
9.0,-8.0,5.99966
9.5,-8.0,5.99966
10.0,-8.0,5.99966
-10.0,-7.5,2.99945
-9.5,-7.5,2.99945
-9.0,-7.5,2.99945
-8.5,-7.5,2.99945
-8.0,-7.5,2.99945
-7.5,-7.5,2.99945
-7.0,-7.5,2.99945
-6.5,-7.5,2.99945
-6.0,-7.5,2.99945
-5.5,-7.5,2.99945
-5.0,-7.5,2.99945
-4.5,-7.5,2.99945
-4.0,-7.5,2.99945
-3.5,-7.5,2.99945
-3.0,-7.5,2.99945
-2.5,-7.5,2.99945
-2.0,-7.5,2.99945
-1.5,-7.5,2.99947
-1.0,-7.5,2.99953
-0.5,-7.5,2.99982
0.0,-7.5,3.00111
0.5,-7.5,3.00687
1.0,-7.5,3.03241
1.5,-7.5,3.14172
2.0,-7.5,3.54672
2.5,-7.5,4.49945
3.0,-7.5,5.45217
3.5,-7.5,5.85717
4.0,-7.5,5.96649
4.5,-7.5,5.99203
5.0,-7.5,5.99779
5.5,-7.5,5.99908
6.0,-7.5,5.99936
6.5,-7.5,5.99943
7.0,-7.5,5.99944
7.5,-7.5,5.99945
8.0,-7.5,5.99945
8.5,-7.5,5.99945
9.0,-7.5,5.99945
9.5,-7.5,5.99945
10.0,-7.5,5.99945
-10.0,-7.0,2.99909
-9.5,-7.0,2.99909
-9.0,-7.0,2.99909
-8.5,-7.0,2.99909
-8.0,-7.0,2.99909
-7.5,-7.0,2.99909
-7.0,-7.0,2.99909
-6.5,-7.0,2.99909
-6.0,-7.0,2.99909
-5.5,-7.0,2.99909
-5.0,-7.0,2.99909
-4.5,-7.0,2.99909
-4.0,-7.0,2.99909
-3.5,-7.0,2.99909
-3.0,-7.0,2.99909
-2.5,-7.0,2.99909
-2.0,-7.0,2.9991
-1.5,-7.0,2.99912
-1.0,-7.0,2.99923
-0.5,-7.0,2.9997
0.0,-7.0,3.00182
0.5,-7.0,3.0113
1.0,-7.0,3.05305
1.5,-7.0,3.22666
2.0,-7.0,3.80591
2.5,-7.0,4.86647
3.0,-7.0,5.64148
3.5,-7.0,5.91115
4.0,-7.0,5.97901
4.5,-7.0,5.99459
5.0,-7.0,5.99808
5.5,-7.0,5.99886
6.0,-7.0,5.99904
6.5,-7.0,5.99908
7.0,-7.0,5.99909
7.5,-7.0,5.99909
8.0,-7.0,5.99909
8.5,-7.0,5.99909
9.0,-7.0,5.99909
9.5,-7.0,5.99909
10.0,-7.0,5.99909
-10.0,-6.5,2.9985
-9.5,-6.5,2.9985
-9.0,-6.5,2.9985
-8.5,-6.5,2.9985
-8.0,-6.5,2.9985
-7.5,-6.5,2.9985
-7.0,-6.5,2.9985
-6.5,-6.5,2.9985
-6.0,-6.5,2.9985
-5.5,-6.5,2.9985
-5.0,-6.5,2.9985
-4.5,-6.5,2.9985
-4.0,-6.5,2.9985
-3.5,-6.5,2.9985
-3.0,-6.5,2.9985
-2.5,-6.5,2.9985
-2.0,-6.5,2.99851
-1.5,-6.5,2.99855
-1.0,-6.5,2.99872
-0.5,-6.5,2.9995
0.0,-6.5,3.003
0.5,-6.5,3.01858
1.0,-6.5,3.08644
1.5,-6.5,3.35611
2.0,-6.5,4.13112
2.5,-6.5,5.19167
3.0,-6.5,5.77092
3.5,-6.5,5.94454
4.0,-6.5,5.98629
4.5,-6.5,5.99577
5.0,-6.5,5.99789
5.5,-6.5,5.99836
6.0,-6.5,5.99847
6.5,-6.5,5.99849
7.0,-6.5,5.9985
7.5,-6.5,5.9985
8.0,-6.5,5.9985
8.5,-6.5,5.9985
9.0,-6.5,5.9985
9.5,-6.5,5.9985
10.0,-6.5,5.9985
-10.0,-6.0,2.99753
-9.5,-6.0,2.99753
-9.0,-6.0,2.99753
-8.5,-6.0,2.99753
-8.0,-6.0,2.99753
-7.5,-6.0,2.99753
-7.0,-6.0,2.99753
-6.5,-6.0,2.99753
-6.0,-6.0,2.99753
-5.5,-6.0,2.99753
-5.0,-6.0,2.99753
-4.5,-6.0,2.99753
-4.0,-6.0,2.99753
-3.5,-6.0,2.99753
-3.0,-6.0,2.99753
-2.5,-6.0,2.99753
-2.0,-6.0,2.99755
-1.5,-6.0,2.99761
-1.0,-6.0,2.9979
-0.5,-6.0,2.99919
0.0,-6.0,3.00495
0.5,-6.0,3.03049
1.0,-6.0,3.1398
1.5,-6.0,3.5448
2.0,-6.0,4.49753
2.5,-6.0,5.45025
3.0,-6.0,5.85525
3.5,-6.0,5.96457
4.0,-6.0,5.99011
4.5,-6.0,5.99587
5.0,-6.0,5.99716
5.5,-6.0,5.99744
6.0,-6.0,5.99751
6.5,-6.0,5.99752
7.0,-6.0,5.99753
7.5,-6.0,5.99753
8.0,-6.0,5.99753
8.5,-6.0,5.99753
9.0,-6.0,5.99753
9.5,-6.0,5.99753
10.0,-6.0,5.99753
-10.0,-5.5,2.99593
-9.5,-5.5,2.99593
-9.0,-5.5,2.99593
-8.5,-5.5,2.99593
-8.0,-5.5,2.99593
-7.5,-5.5,2.99593
-7.0,-5.5,2.99593
-6.5,-5.5,2.99593
-6.0,-5.5,2.99593
-5.5,-5.5,2.99593
-5.0,-5.5,2.99593
-4.5,-5.5,2.99593
-4.0,-5.5,2.99593
-3.5,-5.5,2.99593
-3.0,-5.5,2.99593
-2.5,-5.5,2.99594
-2.0,-5.5,2.99596
-1.5,-5.5,2.99607
-1.0,-5.5,2.99654
-0.5,-5.5,2.99866
0.0,-5.5,3.00814
0.5,-5.5,3.04989
1.0,-5.5,3.2235
1.5,-5.5,3.80275
2.0,-5.5,4.86331
2.5,-5.5,5.63832
3.0,-5.5,5.90799
3.5,-5.5,5.97585
4.0,-5.5,5.99143
4.5,-5.5,5.99492
5.0,-5.5,5.99571
5.5,-5.5,5.99588
6.0,-5.5,5.99592
6.5,-5.5,5.99593
7.0,-5.5,5.99593
7.5,-5.5,5.99593
8.0,-5.5,5.99593
8.5,-5.5,5.99593
9.0,-5.5,5.99593
9.5,-5.5,5.99593
10.0,-5.5,5.99593
-10.0,-5.0,2.99331
-9.5,-5.0,2.99331
-9.0,-5.0,2.99331
-8.5,-5.0,2.99331
-8.0,-5.0,2.99331
-7.5,-5.0,2.99331
-7.0,-5.0,2.99331
-6.5,-5.0,2.99331
-6.0,-5.0,2.99331
-5.5,-5.0,2.99331
-5.0,-5.0,2.99331
-4.5,-5.0,2.99331
-4.0,-5.0,2.99331
-3.5,-5.0,2.99331
-3.0,-5.0,2.99331
-2.5,-5.0,2.99332
-2.0,-5.0,2.99336
-1.5,-5.0,2.99353
-1.0,-5.0,2.99431
-0.5,-5.0,2.99781
0.0,-5.0,3.01339
0.5,-5.0,3.08124
1.0,-5.0,3.35092
1.5,-5.0,4.12593
2.0,-5.0,5.18648
2.5,-5.0,5.76573
3.0,-5.0,5.93935
3.5,-5.0,5.9811
4.0,-5.0,5.99057
4.5,-5.0,5.9927
5.0,-5.0,5.99317
5.5,-5.0,5.99328
6.0,-5.0,5.9933
6.5,-5.0,5.99331
7.0,-5.0,5.99331
7.5,-5.0,5.99331
8.0,-5.0,5.99331
8.5,-5.0,5.99331
9.0,-5.0,5.99331
9.5,-5.0,5.99331
10.0,-5.0,5.99331
-10.0,-4.5,2.98901
-9.5,-4.5,2.98901
-9.0,-4.5,2.98901
-8.5,-4.5,2.98901
-8.0,-4.5,2.98901
-7.5,-4.5,2.98901
-7.0,-4.5,2.98901
-6.5,-4.5,2.98901
-6.0,-4.5,2.98901
-5.5,-4.5,2.98901
-5.0,-4.5,2.98901
-4.5,-4.5,2.98901
-4.0,-4.5,2.98901
-3.5,-4.5,2.98901
-3.0,-4.5,2.98902
-2.5,-4.5,2.98903
-2.0,-4.5,2.9891
-1.5,-4.5,2.98938
-1.0,-4.5,2.99067
-0.5,-4.5,2.99643
0.0,-4.5,3.02197
0.5,-4.5,3.13129
1.0,-4.5,3.53629
1.5,-4.5,4.48901
2.0,-4.5,5.44174
2.5,-4.5,5.84674
3.0,-4.5,5.95605
3.5,-4.5,5.9816
4.0,-4.5,5.98735
4.5,-4.5,5.98864
5.0,-4.5,5.98893
5.5,-4.5,5.98899
6.0,-4.5,5.98901
6.5,-4.5,5.98901
7.0,-4.5,5.98901
7.5,-4.5,5.98901
8.0,-4.5,5.98901
8.5,-4.5,5.98901
9.0,-4.5,5.98901
9.5,-4.5,5.98901
10.0,-4.5,5.98901
-10.0,-4.0,2.98201
-9.5,-4.0,2.98201
-9.0,-4.0,2.98201
-8.5,-4.0,2.98201
-8.0,-4.0,2.98201
-7.5,-4.0,2.98201
-7.0,-4.0,2.98201
-6.5,-4.0,2.98201
-6.0,-4.0,2.98201
-5.5,-4.0,2.98201
-5.0,-4.0,2.98201
-4.5,-4.0,2.98201
-4.0,-4.0,2.98201
-3.5,-4.0,2.98202
-3.0,-4.0,2.98202
-2.5,-4.0,2.98204
-2.0,-4.0,2.98215
-1.5,-4.0,2.98262
-1.0,-4.0,2.98475
-0.5,-4.0,2.99422
0.0,-4.0,3.03597
0.5,-4.0,3.20959
1.0,-4.0,3.78884
1.5,-4.0,4.84939
2.0,-4.0,5.62441
2.5,-4.0,5.89408
3.0,-4.0,5.96194
3.5,-4.0,5.97751
4.0,-4.0,5.98101
4.5,-4.0,5.98179
5.0,-4.0,5.98196
5.5,-4.0,5.982
6.0,-4.0,5.98201
6.5,-4.0,5.98201
7.0,-4.0,5.98201
7.5,-4.0,5.98201
8.0,-4.0,5.98201
8.5,-4.0,5.98201
9.0,-4.0,5.98201
9.5,-4.0,5.98201
10.0,-4.0,5.98201
-10.0,-3.5,2.97069
-9.5,-3.5,2.97069
-9.0,-3.5,2.97069
-8.5,-3.5,2.97069
-8.0,-3.5,2.97069
-7.5,-3.5,2.97069
-7.0,-3.5,2.97069
-6.5,-3.5,2.97069
-6.0,-3.5,2.97069
-5.5,-3.5,2.97069
-5.0,-3.5,2.97069
-4.5,-3.5,2.97069
-4.0,-3.5,2.97069
-3.5,-3.5,2.97069
-3.0,-3.5,2.9707
-2.5,-3.5,2.97074
-2.0,-3.5,2.97091
-1.5,-3.5,2.97169
-1.0,-3.5,2.97519
-0.5,-3.5,2.99077
0.0,-3.5,3.05862
0.5,-3.5,3.3283
1.0,-3.5,4.10331
1.5,-3.5,5.16386
2.0,-3.5,5.74311
2.5,-3.5,5.91673
3.0,-3.5,5.95848
3.5,-3.5,5.96795
4.0,-3.5,5.97008
4.5,-3.5,5.97055
5.0,-3.5,5.97066
5.5,-3.5,5.97068
6.0,-3.5,5.97069
6.5,-3.5,5.97069
7.0,-3.5,5.97069
7.5,-3.5,5.97069
8.0,-3.5,5.97069
8.5,-3.5,5.97069
9.0,-3.5,5.97069
9.5,-3.5,5.97069
10.0,-3.5,5.97069
-10.0,-3.0,2.95257
-9.5,-3.0,2.95257
-9.0,-3.0,2.95257
-8.5,-3.0,2.95257
-8.0,-3.0,2.95257
-7.5,-3.0,2.95257
-7.0,-3.0,2.95257
-6.5,-3.0,2.95257
-6.0,-3.0,2.95257
-5.5,-3.0,2.95257
-5.0,-3.0,2.95257
-4.5,-3.0,2.95257
-4.0,-3.0,2.95258
-3.5,-3.0,2.95258
-3.0,-3.0,2.95259
-2.5,-3.0,2.95266
-2.0,-3.0,2.95294
-1.5,-3.0,2.95423
-1.0,-3.0,2.95999
-0.5,-3.0,2.98553
0.0,-3.0,3.09485
0.5,-3.0,3.49985
1.0,-3.0,4.45257
1.5,-3.0,5.4053
2.0,-3.0,5.8103
2.5,-3.0,5.91961
3.0,-3.0,5.94516
3.5,-3.0,5.95092
4.0,-3.0,5.9522
4.5,-3.0,5.95249
5.0,-3.0,5.95256
5.5,-3.0,5.95257
6.0,-3.0,5.95257
6.5,-3.0,5.95257
7.0,-3.0,5.95257
7.5,-3.0,5.95257
8.0,-3.0,5.95257
8.5,-3.0,5.95257
9.0,-3.0,5.95257
9.5,-3.0,5.95257
10.0,-3.0,5.95257
-10.0,-2.5,2.92414
-9.5,-2.5,2.92414
-9.0,-2.5,2.92414
-8.5,-2.5,2.92414
-8.0,-2.5,2.92414
-7.5,-2.5,2.92414
-7.0,-2.5,2.92414
-6.5,-2.5,2.92414
-6.0,-2.5,2.92414
-5.5,-2.5,2.92414
-5.0,-2.5,2.92414
-4.5,-2.5,2.92414
-4.0,-2.5,2.92414
-3.5,-2.5,2.92415
-3.0,-2.5,2.92417
-2.5,-2.5,2.92428
-2.0,-2.5,2.92475
-1.5,-2.5,2.92687
-1.0,-2.5,2.93635
-0.5,-2.5,2.9781
0.0,-2.5,3.15172
0.5,-2.5,3.73097
1.0,-2.5,4.79152
1.5,-2.5,5.56653
2.0,-2.5,5.83621
2.5,-2.5,5.90406
3.0,-2.5,5.91964
3.5,-2.5,5.92314
4.0,-2.5,5.92392
4.5,-2.5,5.92409
5.0,-2.5,5.92413
5.5,-2.5,5.92414
6.0,-2.5,5.92414
6.5,-2.5,5.92414
7.0,-2.5,5.92414
7.5,-2.5,5.92414
8.0,-2.5,5.92414
8.5,-2.5,5.92414
9.0,-2.5,5.92414
9.5,-2.5,5.92414
10.0,-2.5,5.92414
-10.0,-2.0,2.8808
-9.5,-2.0,2.8808
-9.0,-2.0,2.8808
-8.5,-2.0,2.8808
-8.0,-2.0,2.8808
-7.5,-2.0,2.8808
-7.0,-2.0,2.8808
-6.5,-2.0,2.8808
-6.0,-2.0,2.8808
-5.5,-2.0,2.8808
-5.0,-2.0,2.8808
-4.5,-2.0,2.8808
-4.0,-2.0,2.8808
-3.5,-2.0,2.88081
-3.0,-2.0,2.88085
-2.5,-2.0,2.88102
-2.0,-2.0,2.8818
-1.5,-2.0,2.8853
-1.0,-2.0,2.90088
-0.5,-2.0,2.96873
0.0,-2.0,3.23841
0.5,-2.0,4.01342
1.0,-2.0,5.07397
1.5,-2.0,5.65322
2.0,-2.0,5.82684
2.5,-2.0,5.86859
3.0,-2.0,5.87806
3.5,-2.0,5.88019
4.0,-2.0,5.88066
4.5,-2.0,5.88077
5.0,-2.0,5.88079
5.5,-2.0,5.8808
6.0,-2.0,5.8808
6.5,-2.0,5.8808
7.0,-2.0,5.8808
7.5,-2.0,5.8808
8.0,-2.0,5.8808
8.5,-2.0,5.8808
9.0,-2.0,5.8808
9.5,-2.0,5.8808
10.0,-2.0,5.8808
-10.0,-1.5,2.81757
-9.5,-1.5,2.81757
-9.0,-1.5,2.81757
-8.5,-1.5,2.81757
-8.0,-1.5,2.81757
-7.5,-1.5,2.81757
-7.0,-1.5,2.81757
-6.5,-1.5,2.81757
-6.0,-1.5,2.81757
-5.5,-1.5,2.81757
-5.0,-1.5,2.81757
-4.5,-1.5,2.81758
-4.0,-1.5,2.81758
-3.5,-1.5,2.81759
-3.0,-1.5,2.81766
-2.5,-1.5,2.81794
-2.0,-1.5,2.81923
-1.5,-1.5,2.82499
-1.0,-1.5,2.85054
-0.5,-1.5,2.95985
0.0,-1.5,3.36485
0.5,-1.5,4.31757
1.0,-1.5,5.2703
1.5,-1.5,5.6753
2.0,-1.5,5.78461
2.5,-1.5,5.81016
3.0,-1.5,5.81592
3.5,-1.5,5.8172
4.0,-1.5,5.81749
4.5,-1.5,5.81756
5.0,-1.5,5.81757
5.5,-1.5,5.81757
6.0,-1.5,5.81757
6.5,-1.5,5.81757
7.0,-1.5,5.81757
7.5,-1.5,5.81757
8.0,-1.5,5.81757
8.5,-1.5,5.81757
9.0,-1.5,5.81757
9.5,-1.5,5.81757
10.0,-1.5,5.81757
-10.0,-1.0,2.73106
-9.5,-1.0,2.73106
-9.0,-1.0,2.73106
-8.5,-1.0,2.73106
-8.0,-1.0,2.73106
-7.5,-1.0,2.73106
-7.0,-1.0,2.73106
-6.5,-1.0,2.73106
-6.0,-1.0,2.73106
-5.5,-1.0,2.73106
-5.0,-1.0,2.73106
-4.5,-1.0,2.73106
-4.0,-1.0,2.73107
-3.5,-1.0,2.73109
-3.0,-1.0,2.73119
-2.5,-1.0,2.73167
-2.0,-1.0,2.73379
-1.5,-1.0,2.74327
-1.0,-1.0,2.78502
-0.5,-1.0,2.95863
0.0,-1.0,3.53788
0.5,-1.0,4.59844
1.0,-1.0,5.37345
1.5,-1.0,5.64312
2.0,-1.0,5.71098
2.5,-1.0,5.72656
3.0,-1.0,5.73005
3.5,-1.0,5.73083
4.0,-1.0,5.73101
4.5,-1.0,5.73105
5.0,-1.0,5.73106
5.5,-1.0,5.73106
6.0,-1.0,5.73106
6.5,-1.0,5.73106
7.0,-1.0,5.73106
7.5,-1.0,5.73106
8.0,-1.0,5.73106
8.5,-1.0,5.73106
9.0,-1.0,5.73106
9.5,-1.0,5.73106
10.0,-1.0,5.73106
-10.0,-0.5,2.62246
-9.5,-0.5,2.62246
-9.0,-0.5,2.62246
-8.5,-0.5,2.62246
-8.0,-0.5,2.62246
-7.5,-0.5,2.62246
-7.0,-0.5,2.62246
-6.5,-0.5,2.62246
-6.0,-0.5,2.62246
-5.5,-0.5,2.62246
-5.0,-0.5,2.62246
-4.5,-0.5,2.62246
-4.0,-0.5,2.62247
-3.5,-0.5,2.62251
-3.0,-0.5,2.62268
-2.5,-0.5,2.62347
-2.0,-0.5,2.62696
-1.5,-0.5,2.64254
-1.0,-0.5,2.7104
-0.5,-0.5,2.98007
0.0,-0.5,3.75508
0.5,-0.5,4.81564
1.0,-0.5,5.39488
1.5,-0.5,5.5685
2.0,-0.5,5.61025
2.5,-0.5,5.61973
3.0,-0.5,5.62185
3.5,-0.5,5.62232
4.0,-0.5,5.62243
4.5,-0.5,5.62245
5.0,-0.5,5.62246
5.5,-0.5,5.62246
6.0,-0.5,5.62246
6.5,-0.5,5.62246
7.0,-0.5,5.62246
7.5,-0.5,5.62246
8.0,-0.5,5.62246
8.5,-0.5,5.62246
9.0,-0.5,5.62246
9.5,-0.5,5.62246
10.0,-0.5,5.62246
-10.0,0.0,2.5
-9.5,0.0,2.5
-9.0,0.0,2.5
-8.5,0.0,2.5
-8.0,0.0,2.5
-7.5,0.0,2.5
-7.0,0.0,2.5
-6.5,0.0,2.5
-6.0,0.0,2.5
-5.5,0.0,2.5
-5.0,0.0,2.5
-4.5,0.0,2.5
-4.0,0.0,2.50002
-3.5,0.0,2.50008
-3.0,0.0,2.50037
-2.5,0.0,2.50166
-2.0,0.0,2.50742
-1.5,0.0,2.53296
-1.0,0.0,2.64228
-0.5,0.0,3.04728
0.0,0.0,4.0
0.5,0.0,4.95272
1.0,0.0,5.35772
1.5,0.0,5.46704
2.0,0.0,5.49258
2.5,0.0,5.49834
3.0,0.0,5.49963
3.5,0.0,5.49992
4.0,0.0,5.49998
4.5,0.0,5.5
5.0,0.0,5.5
5.5,0.0,5.5
6.0,0.0,5.5
6.5,0.0,5.5
7.0,0.0,5.5
7.5,0.0,5.5
8.0,0.0,5.5
8.5,0.0,5.5
9.0,0.0,5.5
9.5,0.0,5.5
10.0,0.0,5.5
-10.0,0.5,2.37754
-9.5,0.5,2.37754
-9.0,0.5,2.37754
-8.5,0.5,2.37754
-8.0,0.5,2.37754
-7.5,0.5,2.37754
-7.0,0.5,2.37754
-6.5,0.5,2.37754
-6.0,0.5,2.37754
-5.5,0.5,2.37754
-5.0,0.5,2.37754
-4.5,0.5,2.37755
-4.0,0.5,2.37757
-3.5,0.5,2.37768
-3.0,0.5,2.37815
-2.5,0.5,2.38027
-2.0,0.5,2.38975
-1.5,0.5,2.4315
-1.0,0.5,2.60512
-0.5,0.5,3.18436
0.0,0.5,4.24492
0.5,0.5,5.01993
1.0,0.5,5.2896
1.5,0.5,5.35746
2.0,0.5,5.37304
2.5,0.5,5.37653
3.0,0.5,5.37732
3.5,0.5,5.37749
4.0,0.5,5.37753
4.5,0.5,5.37754
5.0,0.5,5.37754
5.5,0.5,5.37754
6.0,0.5,5.37754
6.5,0.5,5.37754
7.0,0.5,5.37754
7.5,0.5,5.37754
8.0,0.5,5.37754
8.5,0.5,5.37754
9.0,0.5,5.37754
9.5,0.5,5.37754
10.0,0.5,5.37754
-10.0,1.0,2.26894
-9.5,1.0,2.26894
-9.0,1.0,2.26894
-8.5,1.0,2.26894
-8.0,1.0,2.26894
-7.5,1.0,2.26894
-7.0,1.0,2.26894
-6.5,1.0,2.26894
-6.0,1.0,2.26894
-5.5,1.0,2.26894
-5.0,1.0,2.26894
-4.5,1.0,2.26895
-4.0,1.0,2.26899
-3.5,1.0,2.26917
-3.0,1.0,2.26995
-2.5,1.0,2.27344
-2.0,1.0,2.28902
-1.5,1.0,2.35688
-1.0,1.0,2.62655
-0.5,1.0,3.40156
0.0,1.0,4.46212
0.5,1.0,5.04137
1.0,1.0,5.21498
1.5,1.0,5.25673
2.0,1.0,5.26621
2.5,1.0,5.26833
3.0,1.0,5.26881
3.5,1.0,5.26891
4.0,1.0,5.26893
4.5,1.0,5.26894
5.0,1.0,5.26894
5.5,1.0,5.26894
6.0,1.0,5.26894
6.5,1.0,5.26894
7.0,1.0,5.26894
7.5,1.0,5.26894
8.0,1.0,5.26894
8.5,1.0,5.26894
9.0,1.0,5.26894
9.5,1.0,5.26894
10.0,1.0,5.26894
-10.0,1.5,2.18243
-9.5,1.5,2.18243
-9.0,1.5,2.18243
-8.5,1.5,2.18243
-8.0,1.5,2.18243
-7.5,1.5,2.18243
-7.0,1.5,2.18243
-6.5,1.5,2.18243
-6.0,1.5,2.18243
-5.5,1.5,2.18243
-5.0,1.5,2.18243
-4.5,1.5,2.18244
-4.0,1.5,2.18251
-3.5,1.5,2.1828
-3.0,1.5,2.18408
-2.5,1.5,2.18984
-2.0,1.5,2.21539
-1.5,1.5,2.3247
-1.0,1.5,2.7297
-0.5,1.5,3.68243
0.0,1.5,4.63515
0.5,1.5,5.04015
1.0,1.5,5.14946
1.5,1.5,5.17501
2.0,1.5,5.18077
2.5,1.5,5.18206
3.0,1.5,5.18234
3.5,1.5,5.18241
4.0,1.5,5.18242
4.5,1.5,5.18242
5.0,1.5,5.18243
5.5,1.5,5.18243
6.0,1.5,5.18243
6.5,1.5,5.18243
7.0,1.5,5.18243
7.5,1.5,5.18243
8.0,1.5,5.18243
8.5,1.5,5.18243
9.0,1.5,5.18243
9.5,1.5,5.18243
10.0,1.5,5.18243
-10.0,2.0,2.1192
-9.5,2.0,2.1192
-9.0,2.0,2.1192
-8.5,2.0,2.1192
-8.0,2.0,2.1192
-7.5,2.0,2.1192
-7.0,2.0,2.1192
-6.5,2.0,2.1192
-6.0,2.0,2.1192
-5.5,2.0,2.1192
-5.0,2.0,2.11921
-4.5,2.0,2.11923
-4.0,2.0,2.11934
-3.5,2.0,2.11981
-3.0,2.0,2.12194
-2.5,2.0,2.13141
-2.0,2.0,2.17316
-1.5,2.0,2.34678
-1.0,2.0,2.92603
-0.5,2.0,3.98658
0.0,2.0,4.76159
0.5,2.0,5.03127
1.0,2.0,5.09912
1.5,2.0,5.1147
2.0,2.0,5.1182
2.5,2.0,5.11898
3.0,2.0,5.11915
3.5,2.0,5.11919
4.0,2.0,5.1192
4.5,2.0,5.1192
5.0,2.0,5.1192
5.5,2.0,5.1192
6.0,2.0,5.1192
6.5,2.0,5.1192
7.0,2.0,5.1192
7.5,2.0,5.1192
8.0,2.0,5.1192
8.5,2.0,5.1192
9.0,2.0,5.1192
9.5,2.0,5.1192
10.0,2.0,5.1192
-10.0,2.5,2.07586
-9.5,2.5,2.07586
-9.0,2.5,2.07586
-8.5,2.5,2.07586
-8.0,2.5,2.07586
-7.5,2.5,2.07586
-7.0,2.5,2.07586
-6.5,2.5,2.07586
-6.0,2.5,2.07586
-5.5,2.5,2.07586
-5.0,2.5,2.07587
-4.5,2.5,2.07591
-4.0,2.5,2.07608
-3.5,2.5,2.07686
-3.0,2.5,2.08036
-2.5,2.5,2.09594
-2.0,2.5,2.16379
-1.5,2.5,2.43347
-1.0,2.5,3.20848
-0.5,2.5,4.26903
0.0,2.5,4.84828
0.5,2.5,5.0219
1.0,2.5,5.06365
1.5,2.5,5.07313
2.0,2.5,5.07525
2.5,2.5,5.07572
3.0,2.5,5.07583
3.5,2.5,5.07585
4.0,2.5,5.07586
4.5,2.5,5.07586
5.0,2.5,5.07586
5.5,2.5,5.07586
6.0,2.5,5.07586
6.5,2.5,5.07586
7.0,2.5,5.07586
7.5,2.5,5.07586
8.0,2.5,5.07586
8.5,2.5,5.07586
9.0,2.5,5.07586
9.5,2.5,5.07586
10.0,2.5,5.07586
-10.0,3.0,2.04743
-9.5,3.0,2.04743
-9.0,3.0,2.04743
-8.5,3.0,2.04743
-8.0,3.0,2.04743
-7.5,3.0,2.04743
-7.0,3.0,2.04743
-6.5,3.0,2.04743
-6.0,3.0,2.04743
-5.5,3.0,2.04743
-5.0,3.0,2.04744
-4.5,3.0,2.04751
-4.0,3.0,2.0478
-3.5,3.0,2.04908
-3.0,3.0,2.05484
-2.5,3.0,2.08039
-2.0,3.0,2.1897
-1.5,3.0,2.5947
-1.0,3.0,3.54743
-0.5,3.0,4.50015
0.0,3.0,4.90515
0.5,3.0,5.01447
1.0,3.0,5.04001
1.5,3.0,5.04577
2.0,3.0,5.04706
2.5,3.0,5.04734
3.0,3.0,5.04741
3.5,3.0,5.04742
4.0,3.0,5.04742
4.5,3.0,5.04743
5.0,3.0,5.04743
5.5,3.0,5.04743
6.0,3.0,5.04743
6.5,3.0,5.04743
7.0,3.0,5.04743
7.5,3.0,5.04743
8.0,3.0,5.04743
8.5,3.0,5.04743
9.0,3.0,5.04743
9.5,3.0,5.04743
10.0,3.0,5.04743
-10.0,3.5,2.02931
-9.5,3.5,2.02931
-9.0,3.5,2.02931
-8.5,3.5,2.02931
-8.0,3.5,2.02931
-7.5,3.5,2.02931
-7.0,3.5,2.02931
-6.5,3.5,2.02931
-6.0,3.5,2.02931
-5.5,3.5,2.02932
-5.0,3.5,2.02934
-4.5,3.5,2.02945
-4.0,3.5,2.02992
-3.5,3.5,2.03205
-3.0,3.5,2.04152
-2.5,3.5,2.08327
-2.0,3.5,2.25689
-1.5,3.5,2.83614
-1.0,3.5,3.89669
-0.5,3.5,4.6717
0.0,3.5,4.94138
0.5,3.5,5.00923
1.0,3.5,5.02481
1.5,3.5,5.02831
2.0,3.5,5.02909
2.5,3.5,5.02926
3.0,3.5,5.0293
3.5,3.5,5.02931
4.0,3.5,5.02931
4.5,3.5,5.02931
5.0,3.5,5.02931
5.5,3.5,5.02931
6.0,3.5,5.02931
6.5,3.5,5.02931
7.0,3.5,5.02931
7.5,3.5,5.02931
8.0,3.5,5.02931
8.5,3.5,5.02931
9.0,3.5,5.02931
9.5,3.5,5.02931
10.0,3.5,5.02931
-10.0,4.0,2.01799
-9.5,4.0,2.01799
-9.0,4.0,2.01799
-8.5,4.0,2.01799
-8.0,4.0,2.01799
-7.5,4.0,2.01799
-7.0,4.0,2.01799
-6.5,4.0,2.01799
-6.0,4.0,2.01799
-5.5,4.0,2.018
-5.0,4.0,2.01804
-4.5,4.0,2.01821
-4.0,4.0,2.01899
-3.5,4.0,2.02249
-3.0,4.0,2.03806
-2.5,4.0,2.10592
-2.0,4.0,2.37559
-1.5,4.0,3.15061
-1.0,4.0,4.21116
-0.5,4.0,4.79041
0.0,4.0,4.96403
0.5,4.0,5.00578
1.0,4.0,5.01525
1.5,4.0,5.01738
2.0,4.0,5.01785
2.5,4.0,5.01796
3.0,4.0,5.01798
3.5,4.0,5.01798
4.0,4.0,5.01799
4.5,4.0,5.01799
5.0,4.0,5.01799
5.5,4.0,5.01799
6.0,4.0,5.01799
6.5,4.0,5.01799
7.0,4.0,5.01799
7.5,4.0,5.01799
8.0,4.0,5.01799
8.5,4.0,5.01799
9.0,4.0,5.01799
9.5,4.0,5.01799
10.0,4.0,5.01799
-10.0,4.5,2.01099
-9.5,4.5,2.01099
-9.0,4.5,2.01099
-8.5,4.5,2.01099
-8.0,4.5,2.01099
-7.5,4.5,2.01099
-7.0,4.5,2.01099
-6.5,4.5,2.01099
-6.0,4.5,2.01099
-5.5,4.5,2.01101
-5.0,4.5,2.01107
-4.5,4.5,2.01136
-4.0,4.5,2.01265
-3.5,4.5,2.0184
-3.0,4.5,2.04395
-2.5,4.5,2.15326
-2.0,4.5,2.55826
-1.5,4.5,3.51099
-1.0,4.5,4.46371
-0.5,4.5,4.86871
0.0,4.5,4.97803
0.5,4.5,5.00357
1.0,4.5,5.00933
1.5,4.5,5.01062
2.0,4.5,5.0109
2.5,4.5,5.01097
3.0,4.5,5.01098
3.5,4.5,5.01099
4.0,4.5,5.01099
4.5,4.5,5.01099
5.0,4.5,5.01099
5.5,4.5,5.01099
6.0,4.5,5.01099
6.5,4.5,5.01099
7.0,4.5,5.01099
7.5,4.5,5.01099
8.0,4.5,5.01099
8.5,4.5,5.01099
9.0,4.5,5.01099
9.5,4.5,5.01099
10.0,4.5,5.01099
-10.0,5.0,2.00669
-9.5,5.0,2.00669
-9.0,5.0,2.00669
-8.5,5.0,2.00669
-8.0,5.0,2.00669
-7.5,5.0,2.00669
-7.0,5.0,2.00669
-6.5,5.0,2.00669
-6.0,5.0,2.0067
-5.5,5.0,2.00672
-5.0,5.0,2.00683
-4.5,5.0,2.0073
-4.0,5.0,2.00943
-3.5,5.0,2.0189
-3.0,5.0,2.06065
-2.5,5.0,2.23427
-2.0,5.0,2.81352
-1.5,5.0,3.87407
-1.0,5.0,4.64908
-0.5,5.0,4.91876
0.0,5.0,4.98661
0.5,5.0,5.00219
1.0,5.0,5.00569
1.5,5.0,5.00647
2.0,5.0,5.00664
2.5,5.0,5.00668
3.0,5.0,5.00669
3.5,5.0,5.00669
4.0,5.0,5.00669
4.5,5.0,5.00669
5.0,5.0,5.00669
5.5,5.0,5.00669
6.0,5.0,5.00669
6.5,5.0,5.00669
7.0,5.0,5.00669
7.5,5.0,5.00669
8.0,5.0,5.00669
8.5,5.0,5.00669
9.0,5.0,5.00669
9.5,5.0,5.00669
10.0,5.0,5.00669
-10.0,5.5,2.00407
-9.5,5.5,2.00407
-9.0,5.5,2.00407
-8.5,5.5,2.00407
-8.0,5.5,2.00407
-7.5,5.5,2.00407
-7.0,5.5,2.00407
-6.5,5.5,2.00407
-6.0,5.5,2.00408
-5.5,5.5,2.00412
-5.0,5.5,2.00429
-4.5,5.5,2.00508
-4.0,5.5,2.00857
-3.5,5.5,2.02415
-3.0,5.5,2.09201
-2.5,5.5,2.36168
-2.0,5.5,3.13669
-1.5,5.5,4.19725
-1.0,5.5,4.7765
-0.5,5.5,4.95011
0.0,5.5,4.99186
0.5,5.5,5.00134
1.0,5.5,5.00346
1.5,5.5,5.00393
2.0,5.5,5.00404
2.5,5.5,5.00406
3.0,5.5,5.00407
3.5,5.5,5.00407
4.0,5.5,5.00407
4.5,5.5,5.00407
5.0,5.5,5.00407
5.5,5.5,5.00407
6.0,5.5,5.00407
6.5,5.5,5.00407
7.0,5.5,5.00407
7.5,5.5,5.00407
8.0,5.5,5.00407
8.5,5.5,5.00407
9.0,5.5,5.00407
9.5,5.5,5.00407
10.0,5.5,5.00407
-10.0,6.0,2.00247
-9.5,6.0,2.00247
-9.0,6.0,2.00247
-8.5,6.0,2.00247
-8.0,6.0,2.00247
-7.5,6.0,2.00247
-7.0,6.0,2.00247
-6.5,6.0,2.00248
-6.0,6.0,2.00249
-5.5,6.0,2.00256
-5.0,6.0,2.00284
-4.5,6.0,2.00413
-4.0,6.0,2.00989
-3.5,6.0,2.03543
-3.0,6.0,2.14475
-2.5,6.0,2.54975
-2.0,6.0,3.50247
-1.5,6.0,4.4552
-1.0,6.0,4.8602
-0.5,6.0,4.96951
0.0,6.0,4.99505
0.5,6.0,5.00081
1.0,6.0,5.0021
1.5,6.0,5.00239
2.0,6.0,5.00245
2.5,6.0,5.00247
3.0,6.0,5.00247
3.5,6.0,5.00247
4.0,6.0,5.00247
4.5,6.0,5.00247
5.0,6.0,5.00247
5.5,6.0,5.00247
6.0,6.0,5.00247
6.5,6.0,5.00247
7.0,6.0,5.00247
7.5,6.0,5.00247
8.0,6.0,5.00247
8.5,6.0,5.00247
9.0,6.0,5.00247
9.5,6.0,5.00247
10.0,6.0,5.00247
-10.0,6.5,2.0015
-9.5,6.5,2.0015
-9.0,6.5,2.0015
-8.5,6.5,2.0015
-8.0,6.5,2.0015
-7.5,6.5,2.0015
-7.0,6.5,2.0015
-6.5,6.5,2.00151
-6.0,6.5,2.00153
-5.5,6.5,2.00164
-5.0,6.5,2.00211
-4.5,6.5,2.00423
-4.0,6.5,2.01371
-3.5,6.5,2.05546
-3.0,6.5,2.22908
-2.5,6.5,2.80833
-2.0,6.5,3.86888
-1.5,6.5,4.64389
-1.0,6.5,4.91356
-0.5,6.5,4.98142
0.0,6.5,4.997
0.5,6.5,5.0005
1.0,6.5,5.00128
1.5,6.5,5.00145
2.0,6.5,5.00149
2.5,6.5,5.0015
3.0,6.5,5.0015
3.5,6.5,5.0015
4.0,6.5,5.0015
4.5,6.5,5.0015
5.0,6.5,5.0015
5.5,6.5,5.0015
6.0,6.5,5.0015
6.5,6.5,5.0015
7.0,6.5,5.0015
7.5,6.5,5.0015
8.0,6.5,5.0015
8.5,6.5,5.0015
9.0,6.5,5.0015
9.5,6.5,5.0015
10.0,6.5,5.0015
-10.0,7.0,2.00091
-9.5,7.0,2.00091
-9.0,7.0,2.00091
-8.5,7.0,2.00091
-8.0,7.0,2.00091
-7.5,7.0,2.00091
-7.0,7.0,2.00091
-6.5,7.0,2.00092
-6.0,7.0,2.00096
-5.5,7.0,2.00114
-5.0,7.0,2.00192
-4.5,7.0,2.00541
-4.0,7.0,2.02099
-3.5,7.0,2.08885
-3.0,7.0,2.35852
-2.5,7.0,3.13353
-2.0,7.0,4.19409
-1.5,7.0,4.77334
-1.0,7.0,4.94695
-0.5,7.0,4.9887
0.0,7.0,4.99818
0.5,7.0,5.0003
1.0,7.0,5.00077
1.5,7.0,5.00088
2.0,7.0,5.0009
2.5,7.0,5.00091
3.0,7.0,5.00091
3.5,7.0,5.00091
4.0,7.0,5.00091
4.5,7.0,5.00091
5.0,7.0,5.00091
5.5,7.0,5.00091
6.0,7.0,5.00091
6.5,7.0,5.00091
7.0,7.0,5.00091
7.5,7.0,5.00091
8.0,7.0,5.00091
8.5,7.0,5.00091
9.0,7.0,5.00091
9.5,7.0,5.00091
10.0,7.0,5.00091
-10.0,7.5,2.00055
-9.5,7.5,2.00055
-9.0,7.5,2.00055
-8.5,7.5,2.00055
-8.0,7.5,2.00055
-7.5,7.5,2.00055
-7.0,7.5,2.00056
-6.5,7.5,2.00057
-6.0,7.5,2.00064
-5.5,7.5,2.00092
-5.0,7.5,2.00221
-4.5,7.5,2.00797
-4.0,7.5,2.03351
-3.5,7.5,2.14283
-3.0,7.5,2.54783
-2.5,7.5,3.50055
-2.0,7.5,4.45328
-1.5,7.5,4.85828
-1.0,7.5,4.96759
-0.5,7.5,4.99313
0.0,7.5,4.99889
0.5,7.5,5.00018
1.0,7.5,5.00047
1.5,7.5,5.00053
2.0,7.5,5.00055
2.5,7.5,5.00055
3.0,7.5,5.00055
3.5,7.5,5.00055
4.0,7.5,5.00055
4.5,7.5,5.00055
5.0,7.5,5.00055
5.5,7.5,5.00055
6.0,7.5,5.00055
6.5,7.5,5.00055
7.0,7.5,5.00055
7.5,7.5,5.00055
8.0,7.5,5.00055
8.5,7.5,5.00055
9.0,7.5,5.00055
9.5,7.5,5.00055
10.0,7.5,5.00055
-10.0,8.0,2.00034
-9.5,8.0,2.00034
-9.0,8.0,2.00034
-8.5,8.0,2.00034
-8.0,8.0,2.00034
-7.5,8.0,2.00034
-7.0,8.0,2.00034
-6.5,8.0,2.00037
-6.0,8.0,2.00047
-5.5,8.0,2.00095
-5.0,8.0,2.00307
-4.5,8.0,2.01255
-4.0,8.0,2.05429
-3.5,8.0,2.22791
-3.0,8.0,2.80716
-2.5,8.0,3.86771
-2.0,8.0,4.64273
-1.5,8.0,4.9124
-1.0,8.0,4.98026
-0.5,8.0,4.99583
0.0,8.0,4.99933
0.5,8.0,5.00011
1.0,8.0,5.00029
1.5,8.0,5.00032
2.0,8.0,5.00033
2.5,8.0,5.00033
3.0,8.0,5.00034
3.5,8.0,5.00034
4.0,8.0,5.00034
4.5,8.0,5.00034
5.0,8.0,5.00034
5.5,8.0,5.00034
6.0,8.0,5.00034
6.5,8.0,5.00034
7.0,8.0,5.00034
7.5,8.0,5.00034
8.0,8.0,5.00034
8.5,8.0,5.00034
9.0,8.0,5.00034
9.5,8.0,5.00034
10.0,8.0,5.00034
-10.0,8.5,2.0002
-9.5,8.5,2.0002
-9.0,8.5,2.0002
-8.5,8.5,2.0002
-8.0,8.5,2.0002
-7.5,8.5,2.00021
-7.0,8.5,2.00021
-6.5,8.5,2.00025
-6.0,8.5,2.00043
-5.5,8.5,2.00121
-5.0,8.5,2.00471
-4.5,8.5,2.02028
-4.0,8.5,2.08814
-3.5,8.5,2.35781
-3.0,8.5,3.13283
-2.5,8.5,4.19338
-2.0,8.5,4.77263
-1.5,8.5,4.94624
-1.0,8.5,4.98799
-0.5,8.5,4.99747
0.0,8.5,4.99959
0.5,8.5,5.00007
1.0,8.5,5.00017
1.5,8.5,5.0002
2.0,8.5,5.0002
2.5,8.5,5.0002
3.0,8.5,5.0002
3.5,8.5,5.0002
4.0,8.5,5.0002
4.5,8.5,5.0002
5.0,8.5,5.0002
5.5,8.5,5.0002
6.0,8.5,5.0002
6.5,8.5,5.0002
7.0,8.5,5.0002
7.5,8.5,5.0002
8.0,8.5,5.0002
8.5,8.5,5.0002
9.0,8.5,5.0002
9.5,8.5,5.0002
10.0,8.5,5.0002
-10.0,9.0,2.00012
-9.5,9.0,2.00012
-9.0,9.0,2.00012
-8.5,9.0,2.00012
-8.0,9.0,2.00012
-7.5,9.0,2.00013
-7.0,9.0,2.00014
-6.5,9.0,2.00021
-6.0,9.0,2.00049
-5.5,9.0,2.00178
-5.0,9.0,2.00754
-4.5,9.0,2.03308
-4.0,9.0,2.1424
-3.5,9.0,2.5474
-3.0,9.0,3.50012
-2.5,9.0,4.45285
-2.0,9.0,4.85785
-1.5,9.0,4.96716
-1.0,9.0,4.99271
-0.5,9.0,4.99847
0.0,9.0,4.99975
0.5,9.0,5.00004
1.0,9.0,5.0001
1.5,9.0,5.00012
2.0,9.0,5.00012
2.5,9.0,5.00012
3.0,9.0,5.00012
3.5,9.0,5.00012
4.0,9.0,5.00012
4.5,9.0,5.00012
5.0,9.0,5.00012
5.5,9.0,5.00012
6.0,9.0,5.00012
6.5,9.0,5.00012
7.0,9.0,5.00012
7.5,9.0,5.00012
8.0,9.0,5.00012
8.5,9.0,5.00012
9.0,9.0,5.00012
9.5,9.0,5.00012
10.0,9.0,5.00012
-10.0,9.5,2.00007
-9.5,9.5,2.00007
-9.0,9.5,2.00007
-8.5,9.5,2.00008
-8.0,9.5,2.00008
-7.5,9.5,2.00008
-7.0,9.5,2.00011
-6.5,9.5,2.00021
-6.0,9.5,2.00069
-5.5,9.5,2.00281
-5.0,9.5,2.01229
-4.5,9.5,2.05403
-4.0,9.5,2.22765
-3.5,9.5,2.8069
-3.0,9.5,3.86745
-2.5,9.5,4.64247
-2.0,9.5,4.91214
-1.5,9.5,4.98
-1.0,9.5,4.99557
-0.5,9.5,4.99907
0.0,9.5,4.99985
0.5,9.5,5.00002
1.0,9.5,5.00006
1.5,9.5,5.00007
2.0,9.5,5.00007
2.5,9.5,5.00007
3.0,9.5,5.00007
3.5,9.5,5.00007
4.0,9.5,5.00007
4.5,9.5,5.00007
5.0,9.5,5.00007
5.5,9.5,5.00007
6.0,9.5,5.00007
6.5,9.5,5.00007
7.0,9.5,5.00007
7.5,9.5,5.00007
8.0,9.5,5.00007
8.5,9.5,5.00007
9.0,9.5,5.00007
9.5,9.5,5.00007
10.0,9.5,5.00007
-10.0,10.0,2.00005
-9.5,10.0,2.00005
-9.0,10.0,2.00005
-8.5,10.0,2.00005
-8.0,10.0,2.00005
-7.5,10.0,2.00006
-7.0,10.0,2.0001
-6.5,10.0,2.00027
-6.0,10.0,2.00105
-5.5,10.0,2.00455
-5.0,10.0,2.02012
-4.5,10.0,2.08798
-4.0,10.0,2.35765
-3.5,10.0,3.13267
-3.0,10.0,4.19322
-2.5,10.0,4.77247
-2.0,10.0,4.94609
-1.5,10.0,4.98783
-1.0,10.0,4.99731
-0.5,10.0,4.99944
0.0,10.0,4.99991
0.5,10.0,5.00002
1.0,10.0,5.00004
1.5,10.0,5.00004
2.0,10.0,5.00005
2.5,10.0,5.00005
3.0,10.0,5.00005
3.5,10.0,5.00005
4.0,10.0,5.00005
4.5,10.0,5.00005
5.0,10.0,5.00005
5.5,10.0,5.00005
6.0,10.0,5.00005
6.5,10.0,5.00005
7.0,10.0,5.00005
7.5,10.0,5.00005
8.0,10.0,5.00005
8.5,10.0,5.00005
9.0,10.0,5.00005
9.5,10.0,5.00005
10.0,10.0,5.00005
