theta0,theta1,bias
-10.0,-10.0,-0.2887
-9.5,-10.0,-0.2887
-9.0,-10.0,-0.2887
-8.5,-10.0,-0.2887
-8.0,-10.0,-0.2887
-7.5,-10.0,-0.2887
-7.0,-10.0,-0.2887
-6.5,-10.0,-0.2887
-6.0,-10.0,-0.2887
-5.5,-10.0,-0.2887
-5.0,-10.0,-0.2887
-4.5,-10.0,-0.2887
-4.0,-10.0,-0.2887
-3.5,-10.0,-0.2887
-3.0,-10.0,-0.2887
-2.5,-10.0,-0.2887
-2.0,-10.0,-0.2887
-1.5,-10.0,-0.28869
-1.0,-10.0,-0.28864
-0.5,-10.0,-0.2884
0.0,-10.0,-0.28731
0.5,-10.0,-0.28232
1.0,-10.0,-0.25931
1.5,-10.0,-0.15217
2.0,-10.0,0.35164
2.5,-10.0,2.5723
3.0,-10.0,7.94208
3.5,-10.0,12.05546
4.0,-10.0,13.46736
4.5,-10.0,13.96374
5.0,-10.0,14.33139
5.5,-10.0,14.67568
6.0,-10.0,14.91099
6.5,-10.0,15.02838
7.0,-10.0,15.07741
7.5,-10.0,15.09635
8.0,-10.0,15.10345
8.5,-10.0,15.10608
9.0,-10.0,15.10705
9.5,-10.0,15.1074
10.0,-10.0,15.10753
-10.0,-9.5,-0.28821
-9.5,-9.5,-0.28821
-9.0,-9.5,-0.28821
-8.5,-9.5,-0.28821
-8.0,-9.5,-0.28821
-7.5,-9.5,-0.28821
-7.0,-9.5,-0.28821
-6.5,-9.5,-0.28821
-6.0,-9.5,-0.28821
-5.5,-9.5,-0.28821
-5.0,-9.5,-0.28821
-4.5,-9.5,-0.28821
-4.0,-9.5,-0.28821
-3.5,-9.5,-0.28821
-3.0,-9.5,-0.28821
-2.5,-9.5,-0.28821
-2.0,-9.5,-0.28821
-1.5,-9.5,-0.28819
-1.0,-9.5,-0.2881
-0.5,-9.5,-0.28771
0.0,-9.5,-0.28592
0.5,-9.5,-0.2777
1.0,-9.5,-0.2398
1.5,-9.5,-0.06388
2.0,-9.5,0.75298
2.5,-9.5,4.00618
3.0,-9.5,9.65132
3.5,-9.5,12.73488
4.0,-9.5,13.70191
4.5,-9.5,14.13599
5.0,-9.5,14.50987
5.5,-9.5,14.81015
6.0,-9.5,14.982
6.5,-9.5,15.05907
7.0,-9.5,15.08975
7.5,-9.5,15.10137
8.0,-9.5,15.1057
8.5,-9.5,15.10729
9.0,-9.5,15.10788
9.5,-9.5,15.1081
10.0,-9.5,15.10818
-10.0,-9.0,-0.2874
-9.5,-9.0,-0.2874
-9.0,-9.0,-0.2874
-8.5,-9.0,-0.2874
-8.0,-9.0,-0.2874
-7.5,-9.0,-0.2874
-7.0,-9.0,-0.2874
-6.5,-9.0,-0.2874
-6.0,-9.0,-0.2874
-5.5,-9.0,-0.2874
-5.0,-9.0,-0.2874
-4.5,-9.0,-0.2874
-4.0,-9.0,-0.2874
-3.5,-9.0,-0.2874
-3.0,-9.0,-0.2874
-2.5,-9.0,-0.2874
-2.0,-9.0,-0.28739
-1.5,-9.0,-0.28736
-1.0,-9.0,-0.28723
-0.5,-9.0,-0.28658
0.0,-9.0,-0.28363
0.5,-9.0,-0.27008
1.0,-9.0,-0.20771
1.5,-9.0,0.08037
2.0,-9.0,1.38617
2.5,-9.0,5.78818
3.0,-9.0,11.03476
3.5,-9.0,13.20292
4.0,-9.0,13.90487
4.5,-9.0,14.31973
5.0,-9.0,14.67445
5.5,-9.0,14.912
6.0,-9.0,15.02987
6.5,-9.0,15.07901
7.0,-9.0,15.09797
7.5,-9.0,15.10507
8.0,-9.0,15.1077
8.5,-9.0,15.10867
9.0,-9.0,15.10903
9.5,-9.0,15.10916
10.0,-9.0,15.10921
-10.0,-8.5,-0.28607
-9.5,-8.5,-0.28607
-9.0,-8.5,-0.28607
-8.5,-8.5,-0.28607
-8.0,-8.5,-0.28607
-7.5,-8.5,-0.28607
-7.0,-8.5,-0.28607
-6.5,-8.5,-0.28607
-6.0,-8.5,-0.28607
-5.5,-8.5,-0.28607
-5.0,-8.5,-0.28607
-4.5,-8.5,-0.28607
-4.0,-8.5,-0.28607
-3.5,-8.5,-0.28607
-3.0,-8.5,-0.28607
-2.5,-8.5,-0.28607
-2.0,-8.5,-0.28606
-1.5,-8.5,-0.28601
-1.0,-8.5,-0.28578
-0.5,-8.5,-0.28472
0.0,-8.5,-0.27985
0.5,-8.5,-0.25752
1.0,-8.5,-0.155
1.5,-8.5,0.31453
2.0,-8.5,2.34807
2.5,-8.5,7.71475
3.0,-8.5,12.05451
3.5,-8.5,13.54038
4.0,-8.5,14.10207
4.5,-8.5,14.50461
5.0,-8.5,14.81114
5.5,-8.5,14.98431
6.0,-8.5,15.06167
6.5,-8.5,15.09241
7.0,-8.5,15.10405
7.5,-8.5,15.10837
8.0,-8.5,15.10997
8.5,-8.5,15.11056
9.0,-8.5,15.11077
9.5,-8.5,15.11085
10.0,-8.5,15.11088
-10.0,-8.0,-0.28387
-9.5,-8.0,-0.28387
-9.0,-8.0,-0.28387
-8.5,-8.0,-0.28387
-8.0,-8.0,-0.28387
-7.5,-8.0,-0.28387
-7.0,-8.0,-0.28387
-6.5,-8.0,-0.28387
-6.0,-8.0,-0.28387
-5.5,-8.0,-0.28387
-5.0,-8.0,-0.28387
-4.5,-8.0,-0.28387
-4.0,-8.0,-0.28387
-3.5,-8.0,-0.28387
-3.0,-8.0,-0.28387
-2.5,-8.0,-0.28387
-2.0,-8.0,-0.28385
-1.5,-8.0,-0.28377
-1.0,-8.0,-0.28339
-0.5,-8.0,-0.28164
0.0,-8.0,-0.27362
0.5,-8.0,-0.23685
1.0,-8.0,-0.06867
1.5,-8.0,0.69053
2.0,-8.0,3.71657
2.5,-8.0,9.50979
3.0,-8.0,12.77029
3.5,-8.0,13.80897
4.0,-8.0,14.30216
4.5,-8.0,14.67415
5.0,-8.0,14.91541
5.5,-8.0,15.03406
6.0,-8.0,15.08337
6.5,-8.0,15.10237
7.0,-8.0,15.10948
7.5,-8.0,15.11211
8.0,-8.0,15.11308
8.5,-8.0,15.11343
9.0,-8.0,15.11357
9.5,-8.0,15.11361
10.0,-8.0,15.11363
-10.0,-7.5,-0.28025
-9.5,-7.5,-0.28025
-9.0,-7.5,-0.28025
-8.5,-7.5,-0.28025
-8.0,-7.5,-0.28025
-7.5,-7.5,-0.28025
-7.0,-7.5,-0.28025
-6.5,-7.5,-0.28025
-6.0,-7.5,-0.28025
-5.5,-7.5,-0.28025
-5.0,-7.5,-0.28025
-4.5,-7.5,-0.28025
-4.0,-7.5,-0.28025
-3.5,-7.5,-0.28025
-3.0,-7.5,-0.28025
-2.5,-7.5,-0.28024
-2.0,-7.5,-0.28022
-1.5,-7.5,-0.28008
-1.0,-7.5,-0.27946
-0.5,-7.5,-0.27658
0.0,-7.5,-0.26335
0.5,-7.5,-0.20286
1.0,-7.5,0.07217
1.5,-7.5,1.28284
2.0,-7.5,5.47469
2.5,-7.5,10.97433
3.0,-7.5,13.27507
3.5,-7.5,14.04856
4.0,-7.5,14.49876
4.5,-7.5,14.81562
5.0,-7.5,14.99098
5.5,-7.5,15.06881
6.0,-7.5,15.09965
6.5,-7.5,15.11131
7.0,-7.5,15.11564
7.5,-7.5,15.11723
8.0,-7.5,15.11782
8.5,-7.5,15.11804
9.0,-7.5,15.11812
9.5,-7.5,15.11815
10.0,-7.5,15.11816
-10.0,-7.0,-0.27428
-9.5,-7.0,-0.27428
-9.0,-7.0,-0.27428
-8.5,-7.0,-0.27428
-8.0,-7.0,-0.27428
-7.5,-7.0,-0.27428
-7.0,-7.0,-0.27428
-6.5,-7.0,-0.27428
-6.0,-7.0,-0.27428
-5.5,-7.0,-0.27428
-5.0,-7.0,-0.27428
-4.5,-7.0,-0.27428
-4.0,-7.0,-0.27428
-3.5,-7.0,-0.27428
-3.0,-7.0,-0.27428
-2.5,-7.0,-0.27427
-2.0,-7.0,-0.27423
-1.5,-7.0,-0.27401
-1.0,-7.0,-0.27298
-0.5,-7.0,-0.26823
0.0,-7.0,-0.24644
0.5,-7.0,-0.14703
1.0,-7.0,0.30031
1.5,-7.0,2.18535
2.0,-7.0,7.44405
2.5,-7.0,12.06187
3.0,-7.0,13.65355
3.5,-7.0,14.2776
4.0,-7.0,14.67835
4.5,-7.0,14.92574
5.0,-7.0,15.04569
5.5,-7.0,15.09527
6.0,-7.0,15.11433
6.5,-7.0,15.12145
7.0,-7.0,15.12408
7.5,-7.0,15.12505
8.0,-7.0,15.12541
8.5,-7.0,15.12554
9.0,-7.0,15.12559
9.5,-7.0,15.12561
10.0,-7.0,15.12561
-10.0,-6.5,-0.26445
-9.5,-6.5,-0.26445
-9.0,-6.5,-0.26445
-8.5,-6.5,-0.26445
-8.0,-6.5,-0.26445
-7.5,-6.5,-0.26445
-7.0,-6.5,-0.26445
-6.5,-6.5,-0.26445
-6.0,-6.5,-0.26445
-5.5,-6.5,-0.26445
-5.0,-6.5,-0.26445
-4.5,-6.5,-0.26445
-4.0,-6.5,-0.26445
-3.5,-6.5,-0.26445
-3.0,-6.5,-0.26445
-2.5,-6.5,-0.26444
-2.0,-6.5,-0.26436
-1.5,-6.5,-0.264
-1.0,-6.5,-0.26231
-0.5,-6.5,-0.25447
0.0,-6.5,-0.21858
0.5,-6.5,-0.05557
1.0,-6.5,0.66567
1.5,-6.5,3.48523
2.0,-6.5,9.33525
2.5,-6.5,12.83769
3.0,-6.5,13.96662
3.5,-6.5,14.49672
4.0,-6.5,14.83077
4.5,-6.5,15.00975
5.0,-6.5,15.08834
5.5,-6.5,15.11933
6.0,-6.5,15.13103
6.5,-6.5,15.13536
7.0,-6.5,15.13696
7.5,-6.5,15.13755
8.0,-6.5,15.13777
8.5,-6.5,15.13784
9.0,-6.5,15.13787
9.5,-6.5,15.13788
10.0,-6.5,15.13789
-10.0,-6.0,-0.24827
-9.5,-6.0,-0.24827
-9.0,-6.0,-0.24827
-8.5,-6.0,-0.24827
-8.0,-6.0,-0.24827
-7.5,-6.0,-0.24827
-7.0,-6.0,-0.24827
-6.5,-6.0,-0.24827
-6.0,-6.0,-0.24827
-5.5,-6.0,-0.24827
-5.0,-6.0,-0.24827
-4.5,-6.0,-0.24827
-4.0,-6.0,-0.24827
-3.5,-6.0,-0.24827
-3.0,-6.0,-0.24827
-2.5,-6.0,-0.24825
-2.0,-6.0,-0.24812
-1.5,-6.0,-0.24753
-1.0,-6.0,-0.24473
-0.5,-6.0,-0.23182
0.0,-6.0,-0.17276
0.5,-6.0,0.09363
1.0,-6.0,1.23979
1.5,-6.0,5.19834
2.0,-6.0,10.91434
2.5,-6.0,13.40318
3.0,-6.0,14.24896
3.5,-6.0,14.69798
4.0,-6.0,14.95556
4.5,-6.0,15.07762
5.0,-6.0,15.12764
5.5,-6.0,15.14679
6.0,-6.0,15.15393
6.5,-6.0,15.15656
7.0,-6.0,15.15753
7.5,-6.0,15.15789
8.0,-6.0,15.15802
8.5,-6.0,15.15807
9.0,-6.0,15.15809
9.5,-6.0,15.15809
10.0,-6.0,15.1581
-10.0,-5.5,-0.22167
-9.5,-5.5,-0.22167
-9.0,-5.5,-0.22167
-8.5,-5.5,-0.22167
-8.0,-5.5,-0.22167
-7.5,-5.5,-0.22167
-7.0,-5.5,-0.22167
-6.5,-5.5,-0.22167
-6.0,-5.5,-0.22167
-5.5,-5.5,-0.22167
-5.0,-5.5,-0.22167
-4.5,-5.5,-0.22167
-4.0,-5.5,-0.22167
-3.5,-5.5,-0.22167
-3.0,-5.5,-0.22166
-2.5,-5.5,-0.22162
-2.0,-5.5,-0.22142
-1.5,-5.5,-0.22044
-1.0,-5.5,-0.21583
-0.5,-5.5,-0.19454
0.0,-5.5,-0.09746
0.5,-5.5,0.33539
1.0,-5.5,2.1144
1.5,-5.5,7.19207
2.0,-5.5,12.11431
2.5,-5.5,13.8478
3.0,-5.5,14.51383
3.5,-5.5,14.8767
4.0,-5.5,15.06165
4.5,-5.5,15.14146
5.0,-5.5,15.17271
5.5,-5.5,15.18445
6.0,-5.5,15.1888
6.5,-5.5,15.1904
7.0,-5.5,15.19098
7.5,-5.5,15.1912
8.0,-5.5,15.19128
8.5,-5.5,15.19131
9.0,-5.5,15.19132
9.5,-5.5,15.19132
10.0,-5.5,15.19132
-10.0,-5.0,-0.17798
-9.5,-5.0,-0.17798
-9.0,-5.0,-0.17798
-8.5,-5.0,-0.17798
-8.0,-5.0,-0.17798
-7.5,-5.0,-0.17798
-7.0,-5.0,-0.17798
-6.5,-5.0,-0.17798
-6.0,-5.0,-0.17798
-5.5,-5.0,-0.17798
-5.0,-5.0,-0.17798
-4.5,-5.0,-0.17798
-4.0,-5.0,-0.17799
-3.5,-5.0,-0.17798
-3.0,-5.0,-0.17797
-2.5,-5.0,-0.17791
-2.0,-5.0,-0.17757
-1.5,-5.0,-0.17595
-1.0,-5.0,-0.16835
-0.5,-5.0,-0.13327
0.0,-5.0,0.02601
0.5,-5.0,0.72289
1.0,-5.0,3.38245
1.5,-5.0,9.19607
2.0,-5.0,13.00256
2.5,-5.0,14.23322
3.0,-5.0,14.76445
3.5,-5.0,15.03903
4.0,-5.0,15.16454
4.5,-5.0,15.21526
5.0,-5.0,15.23454
5.5,-5.0,15.24171
6.0,-5.0,15.24434
6.5,-5.0,15.24531
7.0,-5.0,15.24567
7.5,-5.0,15.2458
8.0,-5.0,15.24585
8.5,-5.0,15.24587
9.0,-5.0,15.24587
9.5,-5.0,15.24588
10.0,-5.0,15.24588
-10.0,-4.5,-0.10646
-9.5,-4.5,-0.10646
-9.0,-4.5,-0.10646
-8.5,-4.5,-0.10646
-8.0,-4.5,-0.10646
-7.5,-4.5,-0.10646
-7.0,-4.5,-0.10646
-6.5,-4.5,-0.10646
-6.0,-4.5,-0.10646
-5.5,-4.5,-0.10646
-5.0,-4.5,-0.10646
-4.5,-4.5,-0.10647
-4.0,-4.5,-0.10647
-3.5,-4.5,-0.10646
-3.0,-4.5,-0.10645
-2.5,-4.5,-0.10634
-2.0,-4.5,-0.10579
-1.5,-4.5,-0.10311
-1.0,-4.5,-0.09056
-0.5,-4.5,-0.03276
0.0,-4.5,0.2277
0.5,-4.5,1.33319
1.0,-4.5,5.08789
1.5,-4.5,10.95496
2.0,-4.5,13.69269
2.5,-4.5,14.59636
3.0,-4.5,15.00828
3.5,-4.5,15.20312
4.0,-4.5,15.28488
4.5,-4.5,15.31651
5.0,-4.5,15.32831
5.5,-4.5,15.33267
6.0,-4.5,15.33427
6.5,-4.5,15.33485
7.0,-4.5,15.33507
7.5,-4.5,15.33515
8.0,-4.5,15.33518
8.5,-4.5,15.33519
9.0,-4.5,15.33519
9.5,-4.5,15.33519
10.0,-4.5,15.33519
-10.0,-4.0,0.01011
-9.5,-4.0,0.01011
-9.0,-4.0,0.01011
-8.5,-4.0,0.01011
-8.0,-4.0,0.01011
-7.5,-4.0,0.01011
-7.0,-4.0,0.01011
-6.5,-4.0,0.01011
-6.0,-4.0,0.01011
-5.5,-4.0,0.01011
-5.0,-4.0,0.01011
-4.5,-4.0,0.01011
-4.0,-4.0,0.01011
-3.5,-4.0,0.01011
-3.0,-4.0,0.01014
-2.5,-4.0,0.01032
-2.0,-4.0,0.01123
-1.5,-4.0,0.01565
-1.0,-4.0,0.03638
-0.5,-4.0,0.13156
0.0,-4.0,0.55531
0.5,-4.0,2.26849
1.0,-4.0,7.15607
1.5,-4.0,12.37786
2.0,-4.0,14.28844
2.5,-4.0,14.96365
3.0,-4.0,15.26703
3.5,-4.0,15.39817
4.0,-4.0,15.44996
4.5,-4.0,15.46943
5.0,-4.0,15.47661
5.5,-4.0,15.47925
6.0,-4.0,15.48022
6.5,-4.0,15.48057
7.0,-4.0,15.4807
7.5,-4.0,15.48075
8.0,-4.0,15.48077
8.5,-4.0,15.48078
9.0,-4.0,15.48078
9.5,-4.0,15.48078
10.0,-4.0,15.48078
-10.0,-3.5,0.19875
-9.5,-3.5,0.19875
-9.0,-3.5,0.19875
-8.5,-3.5,0.19875
-8.0,-3.5,0.19875
-7.5,-3.5,0.19875
-7.0,-3.5,0.19875
-6.5,-3.5,0.19875
-6.0,-3.5,0.19875
-5.5,-3.5,0.19875
-5.0,-3.5,0.19875
-4.5,-3.5,0.19875
-4.0,-3.5,0.19875
-3.5,-3.5,0.19875
-3.0,-3.5,0.1988
-2.5,-3.5,0.1991
-2.0,-3.5,0.20061
-1.5,-3.5,0.20792
-1.0,-3.5,0.24219
-0.5,-3.5,0.39881
0.0,-3.5,1.08239
0.5,-3.5,3.64371
1.0,-3.5,9.37883
1.5,-3.5,13.53668
2.0,-3.5,14.87147
2.5,-3.5,15.36919
3.0,-3.5,15.58059
3.5,-3.5,15.66545
4.0,-3.5,15.69761
4.5,-3.5,15.70949
5.0,-3.5,15.71384
5.5,-3.5,15.71544
6.0,-3.5,15.71602
6.5,-3.5,15.71624
7.0,-3.5,15.71632
7.5,-3.5,15.71634
8.0,-3.5,15.71635
8.5,-3.5,15.71636
9.0,-3.5,15.71636
9.5,-3.5,15.71636
10.0,-3.5,15.71636
-10.0,-3.0,0.50044
-9.5,-3.0,0.50044
-9.0,-3.0,0.50044
-8.5,-3.0,0.50044
-8.0,-3.0,0.50044
-7.5,-3.0,0.50044
-7.0,-3.0,0.50044
-6.5,-3.0,0.50044
-6.0,-3.0,0.50044
-5.5,-3.0,0.50044
-5.0,-3.0,0.50044
-4.5,-3.0,0.50044
-4.0,-3.0,0.50044
-3.5,-3.0,0.50045
-3.0,-3.0,0.50053
-2.5,-3.0,0.50102
-2.0,-3.0,0.50352
-1.5,-3.0,0.51566
-1.0,-3.0,0.57238
-0.5,-3.0,0.82972
0.0,-3.0,1.91772
0.5,-3.0,5.5498
1.0,-3.0,11.52933
1.5,-3.0,14.57573
2.0,-3.0,15.51479
2.5,-3.0,15.86833
3.0,-3.0,16.00873
3.5,-3.0,16.06211
4.0,-3.0,16.0818
4.5,-3.0,16.08899
5.0,-3.0,16.09161
5.5,-3.0,16.09257
6.0,-3.0,16.09292
6.5,-3.0,16.09305
7.0,-3.0,16.0931
7.5,-3.0,16.09311
8.0,-3.0,16.09312
8.5,-3.0,16.09312
9.0,-3.0,16.09312
9.5,-3.0,16.09312
10.0,-3.0,16.09312
-10.0,-2.5,0.974
-9.5,-2.5,0.974
-9.0,-2.5,0.974
-8.5,-2.5,0.974
-8.0,-2.5,0.974
-7.5,-2.5,0.974
-7.0,-2.5,0.974
-6.5,-2.5,0.974
-6.0,-2.5,0.974
-5.5,-2.5,0.974
-5.0,-2.5,0.97399
-4.5,-2.5,0.97399
-4.0,-2.5,0.97399
-3.5,-2.5,0.974
-3.0,-2.5,0.97414
-2.5,-2.5,0.97496
-2.0,-2.5,0.97913
-1.5,-2.5,0.99932
-1.0,-2.5,1.09343
-0.5,-2.5,1.51513
0.0,-2.5,3.21036
0.5,-2.5,7.99746
1.0,-2.5,13.52254
1.5,-2.5,15.64757
2.0,-2.5,16.30313
2.5,-2.5,16.54316
3.0,-2.5,16.63294
3.5,-2.5,16.6658
4.0,-2.5,16.67772
4.5,-2.5,16.68204
5.0,-2.5,16.68361
5.5,-2.5,16.68419
6.0,-2.5,16.6844
6.5,-2.5,16.68447
7.0,-2.5,16.6845
7.5,-2.5,16.68451
8.0,-2.5,16.68451
8.5,-2.5,16.68452
9.0,-2.5,16.68452
9.5,-2.5,16.68452
10.0,-2.5,16.68452
-10.0,-2.0,1.69592
-9.5,-2.0,1.69592
-9.0,-2.0,1.69592
-8.5,-2.0,1.69592
-8.0,-2.0,1.69592
-7.5,-2.0,1.69592
-7.0,-2.0,1.69592
-6.5,-2.0,1.69592
-6.0,-2.0,1.69592
-5.5,-2.0,1.69592
-5.0,-2.0,1.69592
-4.5,-2.0,1.69591
-4.0,-2.0,1.69591
-3.5,-2.0,1.69594
-3.0,-2.0,1.69617
-2.5,-2.0,1.69754
-2.0,-2.0,1.70454
-1.5,-2.0,1.73828
-1.0,-2.0,1.89484
-0.5,-2.0,2.58244
0.0,-2.0,5.13901
0.5,-2.0,10.88663
1.0,-2.0,15.45075
1.5,-2.0,16.897
2.0,-2.0,17.34308
2.5,-2.0,17.49927
3.0,-2.0,17.55502
3.5,-2.0,17.57492
4.0,-2.0,17.58205
4.5,-2.0,17.58462
5.0,-2.0,17.58555
5.5,-2.0,17.58589
6.0,-2.0,17.58602
6.5,-2.0,17.58606
7.0,-2.0,17.58608
7.5,-2.0,17.58608
8.0,-2.0,17.58609
8.5,-2.0,17.58609
9.0,-2.0,17.58609
9.5,-2.0,17.58609
10.0,-2.0,17.58609
-10.0,-1.5,2.74892
-9.5,-1.5,2.74892
-9.0,-1.5,2.74892
-8.5,-1.5,2.74892
-8.0,-1.5,2.74892
-7.5,-1.5,2.74892
-7.0,-1.5,2.74892
-6.5,-1.5,2.74892
-6.0,-1.5,2.74892
-5.5,-1.5,2.74892
-5.0,-1.5,2.74892
-4.5,-1.5,2.74891
-4.0,-1.5,2.74891
-3.5,-1.5,2.74895
-3.0,-1.5,2.74935
-2.5,-1.5,2.75167
-2.0,-1.5,2.76348
-1.5,-1.5,2.82022
-1.0,-1.5,3.08139
-0.5,-1.5,4.19208
0.0,-1.5,7.86586
0.5,-1.5,14.0584
1.0,-1.5,17.49085
1.5,-1.5,18.45761
2.0,-1.5,18.75077
2.5,-1.5,18.84886
3.0,-1.5,18.88268
3.5,-1.5,18.89453
4.0,-1.5,18.89874
4.5,-1.5,18.90025
5.0,-1.5,18.9008
5.5,-1.5,18.901
6.0,-1.5,18.90108
6.5,-1.5,18.9011
7.0,-1.5,18.90111
7.5,-1.5,18.90112
8.0,-1.5,18.90112
8.5,-1.5,18.90112
9.0,-1.5,18.90112
9.5,-1.5,18.90112
10.0,-1.5,18.90112
-10.0,-1.0,4.18989
-9.5,-1.0,4.18989
-9.0,-1.0,4.18989
-8.5,-1.0,4.18989
-8.0,-1.0,4.18989
-7.5,-1.0,4.18989
-7.0,-1.0,4.18989
-6.5,-1.0,4.18989
-6.0,-1.0,4.18989
-5.5,-1.0,4.18988
-5.0,-1.0,4.18988
-4.5,-1.0,4.18987
-4.0,-1.0,4.18986
-3.5,-1.0,4.18994
-3.0,-1.0,4.19064
-2.5,-1.0,4.1946
-2.0,-1.0,4.21467
-1.5,-1.0,4.31066
-1.0,-1.0,4.74698
-0.5,-1.0,6.50989
0.0,-1.0,11.44255
0.5,-1.0,17.3873
1.0,-1.0,19.79167
1.5,-1.0,20.42377
2.0,-1.0,20.60989
2.5,-1.0,20.66976
3.0,-1.0,20.68987
3.5,-1.0,20.69682
4.0,-1.0,20.69927
4.5,-1.0,20.70015
5.0,-1.0,20.70047
5.5,-1.0,20.70058
6.0,-1.0,20.70062
6.5,-1.0,20.70064
7.0,-1.0,20.70064
7.5,-1.0,20.70065
8.0,-1.0,20.70065
8.5,-1.0,20.70065
9.0,-1.0,20.70065
9.5,-1.0,20.70065
10.0,-1.0,20.70065
-10.0,-0.5,5.99866
-9.5,-0.5,5.99866
-9.0,-0.5,5.99866
-8.5,-0.5,5.99866
-8.0,-0.5,5.99866
-7.5,-0.5,5.99866
-7.0,-0.5,5.99866
-6.5,-0.5,5.99866
-6.0,-0.5,5.99865
-5.5,-0.5,5.99865
-5.0,-0.5,5.99864
-4.5,-0.5,5.99862
-4.0,-0.5,5.99862
-3.5,-0.5,5.99878
-3.0,-0.5,5.99999
-2.5,-0.5,6.00681
-2.0,-0.5,6.04115
-1.5,-0.5,6.20431
-1.0,-0.5,6.93114
-0.5,-0.5,9.64305
0.0,-0.5,15.69897
0.5,-0.5,20.78736
1.0,-0.5,22.38816
1.5,-0.5,22.79099
2.0,-0.5,22.9058
2.5,-0.5,22.94155
3.0,-0.5,22.95331
3.5,-0.5,22.95732
4.0,-0.5,22.95873
4.5,-0.5,22.95923
5.0,-0.5,22.95941
5.5,-0.5,22.95947
6.0,-0.5,22.9595
6.5,-0.5,22.95951
7.0,-0.5,22.95951
7.5,-0.5,22.95951
8.0,-0.5,22.95951
8.5,-0.5,22.95951
9.0,-0.5,22.95951
9.5,-0.5,22.95951
10.0,-0.5,22.95951
-10.0,0.0,8.03827
-9.5,0.0,8.03827
-9.0,0.0,8.03827
-8.5,0.0,8.03827
-8.0,0.0,8.03827
-7.5,0.0,8.03827
-7.0,0.0,8.03827
-6.5,0.0,8.03827
-6.0,0.0,8.03827
-5.5,0.0,8.03826
-5.0,0.0,8.03825
-4.5,0.0,8.03822
-4.0,0.0,8.03822
-3.5,0.0,8.03851
-3.0,0.0,8.04064
-2.5,0.0,8.05243
-2.0,0.0,8.11137
-1.5,0.0,8.38889
-1.0,0.0,9.58603
-0.5,0.0,13.54786
0.0,0.0,20.21308
0.5,0.0,24.12774
1.0,0.0,25.15519
1.5,0.0,25.40594
2.0,0.0,25.47532
2.5,0.0,25.49635
3.0,0.0,25.50314
3.5,0.0,25.50543
4.0,0.0,25.50622
4.5,0.0,25.50651
5.0,0.0,25.50661
5.5,0.0,25.50665
6.0,0.0,25.50666
6.5,0.0,25.50666
7.0,0.0,25.50667
7.5,0.0,25.50667
8.0,0.0,25.50667
8.5,0.0,25.50667
9.0,0.0,25.50667
9.5,0.0,25.50667
10.0,0.0,25.50667
-10.0,0.5,10.07789
-9.5,0.5,10.07789
-9.0,0.5,10.07789
-8.5,0.5,10.07789
-8.0,0.5,10.07789
-7.5,0.5,10.07789
-7.0,0.5,10.07789
-6.5,0.5,10.07789
-6.0,0.5,10.07788
-5.5,0.5,10.07787
-5.0,0.5,10.07785
-4.5,0.5,10.07781
-4.0,0.5,10.07782
-3.5,0.5,10.07835
-3.0,0.5,10.08207
-2.5,0.5,10.10242
-2.0,0.5,10.20342
-1.5,0.5,10.67296
-1.0,0.5,12.59741
-0.5,0.5,17.95696
0.0,0.5,24.44765
0.5,0.5,27.1984
1.0,0.5,27.84077
1.5,0.5,27.99422
2.0,0.5,28.03565
2.5,0.5,28.04792
3.0,0.5,28.05182
3.5,0.5,28.05312
4.0,0.5,28.05357
4.5,0.5,28.05373
5.0,0.5,28.05379
5.5,0.5,28.05381
6.0,0.5,28.05382
6.5,0.5,28.05382
7.0,0.5,28.05382
7.5,0.5,28.05382
8.0,0.5,28.05382
8.5,0.5,28.05382
9.0,0.5,28.05382
9.5,0.5,28.05382
10.0,0.5,28.05382
-10.0,1.0,11.88666
-9.5,1.0,11.88666
-9.0,1.0,11.88666
-8.5,1.0,11.88666
-8.0,1.0,11.88666
-7.5,1.0,11.88666
-7.0,1.0,11.88666
-6.5,1.0,11.88666
-6.0,1.0,11.88665
-5.5,1.0,11.88663
-5.0,1.0,11.8866
-4.5,1.0,11.88654
-4.0,1.0,11.88657
-3.5,1.0,11.88753
-3.0,1.0,11.89398
-2.5,1.0,11.92889
-2.0,1.0,12.10097
-1.5,1.0,12.88594
-1.0,1.0,15.85387
-0.5,1.0,22.40114
0.0,1.0,27.98349
0.5,1.0,29.78966
1.0,1.0,30.1845
1.5,1.0,30.2775
2.0,1.0,30.30214
2.5,1.0,30.30931
3.0,1.0,30.31155
3.5,1.0,30.31229
4.0,1.0,30.31255
4.5,1.0,30.31263
5.0,1.0,30.31267
5.5,1.0,30.31268
6.0,1.0,30.31268
6.5,1.0,30.31268
7.0,1.0,30.31268
7.5,1.0,30.31268
8.0,1.0,30.31269
8.5,1.0,30.31269
9.0,1.0,30.31269
9.5,1.0,30.31269
10.0,1.0,30.31269
-10.0,1.5,13.32762
-9.5,1.5,13.32762
-9.0,1.5,13.32762
-8.5,1.5,13.32762
-8.0,1.5,13.32762
-7.5,1.5,13.32762
-7.0,1.5,13.32762
-6.5,1.5,13.32762
-6.0,1.5,13.32761
-5.5,1.5,13.32758
-5.0,1.5,13.32752
-4.5,1.5,13.32743
-4.0,1.5,13.32751
-3.5,1.5,13.32919
-3.0,1.5,13.34027
-2.5,1.5,13.39971
-2.0,1.5,13.69055
-1.5,1.5,14.97803
-1.0,1.5,19.27816
-0.5,1.5,26.36852
0.0,1.5,30.65918
0.5,1.5,31.7948
1.0,1.5,32.03523
1.5,1.5,32.09138
2.0,1.5,32.10606
2.5,1.5,32.11026
3.0,1.5,32.11157
3.5,1.5,32.11199
4.0,1.5,32.11214
4.5,1.5,32.11219
5.0,1.5,32.11221
5.5,1.5,32.11221
6.0,1.5,32.11221
6.5,1.5,32.11222
7.0,1.5,32.11222
7.5,1.5,32.11222
8.0,1.5,32.11222
8.5,1.5,32.11222
9.0,1.5,32.11222
9.5,1.5,32.11222
10.0,1.5,32.11222
-10.0,2.0,14.38063
-9.5,2.0,14.38063
-9.0,2.0,14.38063
-8.5,2.0,14.38063
-8.0,2.0,14.38062
-7.5,2.0,14.38062
-7.0,2.0,14.38062
-6.5,2.0,14.38061
-6.0,2.0,14.3806
-5.5,2.0,14.38055
-5.0,2.0,14.38046
-4.5,2.0,14.38032
-4.0,2.0,14.38049
-3.5,2.0,14.38338
-3.0,2.0,14.40221
-2.5,2.0,14.50275
-2.0,2.0,14.99003
-1.5,2.0,17.04287
-1.0,2.0,22.75957
-0.5,2.0,29.52144
0.0,2.0,32.53759
0.5,2.0,33.23514
1.0,2.0,33.38096
1.5,2.0,33.41485
2.0,2.0,33.42362
2.5,2.0,33.42611
3.0,2.0,33.42687
3.5,2.0,33.42712
4.0,2.0,33.4272
4.5,2.0,33.42723
5.0,2.0,33.42724
5.5,2.0,33.42724
6.0,2.0,33.42725
6.5,2.0,33.42725
7.0,2.0,33.42725
7.5,2.0,33.42725
8.0,2.0,33.42725
8.5,2.0,33.42725
9.0,2.0,33.42725
9.5,2.0,33.42725
10.0,2.0,33.42725
-10.0,2.5,15.10255
-9.5,2.5,15.10255
-9.0,2.5,15.10255
-8.5,2.5,15.10255
-8.0,2.5,15.10255
-7.5,2.5,15.10255
-7.0,2.5,15.10254
-6.5,2.5,15.10253
-6.0,2.5,15.1025
-5.5,2.5,15.10243
-5.0,2.5,15.10228
-4.5,2.5,15.10206
-4.0,2.5,15.10238
-3.5,2.5,15.10731
-3.0,2.5,15.13912
-2.5,2.5,15.30842
-2.0,2.5,16.11681
-1.5,2.5,19.25399
-1.0,2.5,26.07402
-0.5,2.5,31.79586
0.0,2.5,33.78855
0.5,2.5,34.2126
1.0,2.5,34.30093
1.5,2.5,34.3214
2.0,2.5,34.32666
2.5,2.5,34.32814
3.0,2.5,34.32859
3.5,2.5,34.32874
4.0,2.5,34.32879
4.5,2.5,34.32881
5.0,2.5,34.32881
5.5,2.5,34.32882
6.0,2.5,34.32882
6.5,2.5,34.32882
7.0,2.5,34.32882
7.5,2.5,34.32882
8.0,2.5,34.32882
8.5,2.5,34.32882
9.0,2.5,34.32882
9.5,2.5,34.32882
10.0,2.5,34.32882
-10.0,3.0,15.57611
-9.5,3.0,15.57611
-9.0,3.0,15.57611
-8.5,3.0,15.5761
-8.0,3.0,15.5761
-7.5,3.0,15.5761
-7.0,3.0,15.57609
-6.5,3.0,15.57607
-6.0,3.0,15.57602
-5.5,3.0,15.5759
-5.0,3.0,15.57566
-4.5,3.0,15.57531
-4.0,3.0,15.57588
-3.5,3.0,15.58424
-3.0,3.0,15.63786
-2.5,3.0,15.92239
-2.0,3.0,17.2451
-1.5,3.0,21.74436
-1.0,3.0,28.94041
-0.5,3.0,33.32595
0.0,3.0,34.593
0.5,3.0,34.84987
1.0,3.0,34.90337
1.5,3.0,34.91575
2.0,3.0,34.91892
2.5,3.0,34.91981
3.0,3.0,34.92008
3.5,3.0,34.92016
4.0,3.0,34.92019
4.5,3.0,34.9202
5.0,3.0,34.92021
5.5,3.0,34.92021
6.0,3.0,34.92021
6.5,3.0,34.92021
7.0,3.0,34.92021
7.5,3.0,34.92021
8.0,3.0,34.92021
8.5,3.0,34.92021
9.0,3.0,34.92021
9.5,3.0,34.92021
10.0,3.0,34.92021
-10.0,3.5,15.8778
-9.5,3.5,15.8778
-9.0,3.5,15.8778
-8.5,3.5,15.8778
-8.0,3.5,15.87779
-7.5,3.5,15.87779
-7.0,3.5,15.87778
-6.5,3.5,15.87774
-6.0,3.5,15.87766
-5.5,3.5,15.87747
-5.0,3.5,15.87706
-4.5,3.5,15.87651
-4.0,3.5,15.87751
-3.5,3.5,15.89165
-3.0,3.5,15.98217
-2.5,3.5,16.46018
-2.0,3.5,18.57395
-1.5,3.5,24.47519
-1.0,3.5,31.18136
-0.5,3.5,34.31051
0.0,3.5,35.09889
0.5,3.5,35.25438
1.0,3.5,35.28679
1.5,3.5,35.29428
2.0,3.5,35.2962
2.5,3.5,35.29673
3.0,3.5,35.29689
3.5,3.5,35.29695
4.0,3.5,35.29696
4.5,3.5,35.29697
5.0,3.5,35.29697
5.5,3.5,35.29697
6.0,3.5,35.29697
6.5,3.5,35.29697
7.0,3.5,35.29697
7.5,3.5,35.29697
8.0,3.5,35.29697
8.5,3.5,35.29697
9.0,3.5,35.29697
9.5,3.5,35.29697
10.0,3.5,35.29697
-10.0,4.0,16.06644
-9.5,4.0,16.06644
-9.0,4.0,16.06644
-8.5,4.0,16.06643
-8.0,4.0,16.06643
-7.5,4.0,16.06642
-7.0,4.0,16.0664
-6.5,4.0,16.06635
-6.0,4.0,16.06622
-5.5,4.0,16.0659
-5.0,4.0,16.06523
-4.5,4.0,16.06434
-4.0,4.0,16.06611
-3.5,4.0,16.09012
-3.0,4.0,16.24377
-2.5,4.0,17.04529
-2.0,4.0,20.28484
-1.5,4.0,27.19986
-1.0,4.0,32.797
-0.5,4.0,34.92776
0.0,4.0,35.4126
0.5,4.0,35.50675
1.0,4.0,35.52639
1.5,4.0,35.53093
2.0,4.0,35.53209
2.5,4.0,35.53241
3.0,4.0,35.53251
3.5,4.0,35.53254
4.0,4.0,35.53255
4.5,4.0,35.53255
5.0,4.0,35.53255
5.5,4.0,35.53255
6.0,4.0,35.53255
6.5,4.0,35.53255
7.0,4.0,35.53255
7.5,4.0,35.53255
8.0,4.0,35.53255
8.5,4.0,35.53255
9.0,4.0,35.53255
9.5,4.0,35.53255
10.0,4.0,35.53255
-10.0,4.5,16.18301
-9.5,4.5,16.18301
-9.0,4.5,16.18301
-8.5,4.5,16.18301
-8.0,4.5,16.18301
-7.5,4.5,16.18299
-7.0,4.5,16.18296
-6.5,4.5,16.18287
-6.0,4.5,16.18265
-5.5,4.5,16.18212
-5.0,4.5,16.18103
-4.5,4.5,16.1796
-4.0,4.5,16.18274
-3.5,4.5,16.22392
-3.0,4.5,16.48688
-2.5,4.5,17.81912
-2.0,4.5,22.45695
-1.5,4.5,29.60556
-1.0,4.5,33.90162
-0.5,4.5,35.30914
0.0,4.5,35.60546
0.5,4.5,35.6625
1.0,4.5,35.67441
1.5,4.5,35.67715
2.0,4.5,35.67786
2.5,4.5,35.67805
3.0,4.5,35.67811
3.5,4.5,35.67813
4.0,4.5,35.67813
4.5,4.5,35.67814
5.0,4.5,35.67814
5.5,4.5,35.67814
6.0,4.5,35.67814
6.5,4.5,35.67814
7.0,4.5,35.67814
7.5,4.5,35.67814
8.0,4.5,35.67814
8.5,4.5,35.67814
9.0,4.5,35.67814
9.5,4.5,35.67814
10.0,4.5,35.67814
-10.0,5.0,16.25453
-9.5,5.0,16.25453
-9.0,5.0,16.25453
-8.5,5.0,16.25453
-8.0,5.0,16.25452
-7.5,5.0,16.2545
-7.0,5.0,16.25444
-6.5,5.0,16.2543
-6.0,5.0,16.25393
-5.5,5.0,16.25307
-5.0,5.0,16.25128
-4.5,5.0,16.24899
-4.0,5.0,16.25472
-3.5,5.0,16.32643
-3.0,5.0,16.78027
-2.5,5.0,18.9418
-2.0,5.0,24.96875
-1.5,5.0,31.50706
-1.0,5.0,34.63327
-0.5,5.0,35.5429
0.0,5.0,35.72341
0.5,5.0,35.75797
1.0,5.0,35.76519
1.5,5.0,35.76686
2.0,5.0,35.76728
2.5,5.0,35.7674
3.0,5.0,35.76744
3.5,5.0,35.76745
4.0,5.0,35.76745
4.5,5.0,35.76745
5.0,5.0,35.76746
5.5,5.0,35.76746
6.0,5.0,35.76746
6.5,5.0,35.76746
7.0,5.0,35.76746
7.5,5.0,35.76746
8.0,5.0,35.76746
8.5,5.0,35.76746
9.0,5.0,35.76746
9.5,5.0,35.76746
10.0,5.0,35.76746
-10.0,5.5,16.29821
-9.5,5.5,16.29821
-9.0,5.5,16.29821
-8.5,5.5,16.29821
-8.0,5.5,16.29819
-7.5,5.5,16.29816
-7.0,5.5,16.29807
-6.5,5.5,16.29783
-6.0,5.5,16.29723
-5.5,5.5,16.2958
-5.0,5.5,16.29288
-4.5,5.5,16.28929
-4.0,5.5,16.30008
-3.5,5.5,16.42743
-3.0,5.5,17.2131
-2.5,5.5,20.55327
-2.0,5.5,27.50875
-1.5,5.5,32.89907
-1.0,5.5,35.10785
-0.5,5.5,35.68555
0.0,5.5,35.7953
0.5,5.5,35.81626
1.0,5.5,35.82064
1.5,5.5,35.82165
2.0,5.5,35.8219
2.5,5.5,35.82198
3.0,5.5,35.822
3.5,5.5,35.822
4.0,5.5,35.82201
4.5,5.5,35.82201
5.0,5.5,35.82201
5.5,5.5,35.82201
6.0,5.5,35.82201
6.5,5.5,35.82201
7.0,5.5,35.82201
7.5,5.5,35.82201
8.0,5.5,35.82201
8.5,5.5,35.82201
9.0,5.5,35.82201
9.5,5.5,35.82201
10.0,5.5,35.82201
-10.0,6.0,16.32482
-9.5,6.0,16.32482
-9.0,6.0,16.32482
-8.5,6.0,16.32481
-8.0,6.0,16.32479
-7.5,6.0,16.32473
-7.0,6.0,16.32458
-6.5,6.0,16.32419
-6.0,6.0,16.3232
-5.5,6.0,16.32086
-5.0,6.0,16.31609
-4.5,6.0,16.31064
-4.0,6.0,16.33183
-3.5,6.0,16.56262
-3.0,6.0,17.90776
-2.5,6.0,22.67934
-2.0,6.0,29.74802
-1.5,6.0,33.87808
-1.0,6.0,35.41058
-0.5,6.0,35.77238
0.0,6.0,35.83904
0.5,6.0,35.85175
1.0,6.0,35.8544
1.5,6.0,35.85502
2.0,6.0,35.85517
2.5,6.0,35.85522
3.0,6.0,35.85523
3.5,6.0,35.85523
4.0,6.0,35.85524
4.5,6.0,35.85524
5.0,6.0,35.85524
5.5,6.0,35.85524
6.0,6.0,35.85524
6.5,6.0,35.85524
7.0,6.0,35.85524
7.5,6.0,35.85524
8.0,6.0,35.85524
8.5,6.0,35.85524
9.0,6.0,35.85524
9.5,6.0,35.85524
10.0,6.0,35.85524
-10.0,6.5,16.341
-9.5,6.5,16.341
-9.0,6.5,16.34099
-8.5,6.5,16.34098
-8.0,6.5,16.34095
-7.5,6.5,16.34085
-7.0,6.5,16.34061
-6.5,6.5,16.33996
-6.0,6.5,16.33833
-5.5,6.5,16.33449
-5.0,6.5,16.3268
-4.5,6.5,16.31902
-4.0,6.5,16.3623
-3.5,6.5,16.78603
-3.0,6.5,19.01122
-2.5,6.5,25.14484
-2.0,6.5,31.51322
-1.5,6.5,34.55608
-1.0,6.5,35.60096
-0.5,6.5,35.82515
0.0,6.5,35.86562
0.5,6.5,35.87333
1.0,6.5,35.87494
1.5,6.5,35.87531
2.0,6.5,35.8754
2.5,6.5,35.87543
3.0,6.5,35.87544
3.5,6.5,35.87544
4.0,6.5,35.87544
4.5,6.5,35.87544
5.0,6.5,35.87544
5.5,6.5,35.87544
6.0,6.5,35.87544
6.5,6.5,35.87544
7.0,6.5,35.87544
7.5,6.5,35.87544
8.0,6.5,35.87544
8.5,6.5,35.87544
9.0,6.5,35.87544
9.5,6.5,35.87544
10.0,6.5,35.87544
-10.0,7.0,16.35083
-9.5,7.0,16.35083
-9.0,7.0,16.35082
-8.5,7.0,16.3508
-8.0,7.0,16.35074
-7.5,7.0,16.35059
-7.0,7.0,16.35018
-6.5,7.0,16.34911
-6.0,7.0,16.34644
-5.5,7.0,16.34016
-5.0,7.0,16.32791
-4.5,7.0,16.31818
-4.0,7.0,16.40908
-3.5,7.0,17.18395
-3.0,7.0,20.63993
-2.5,7.0,27.61583
-2.0,7.0,32.80751
-1.5,7.0,35.02165
-1.0,7.0,35.71932
-0.5,7.0,35.8572
0.0,7.0,35.88176
0.5,7.0,35.88643
1.0,7.0,35.88741
1.5,7.0,35.88764
2.0,7.0,35.88769
2.5,7.0,35.88771
3.0,7.0,35.88771
3.5,7.0,35.88772
4.0,7.0,35.88772
4.5,7.0,35.88772
5.0,7.0,35.88772
5.5,7.0,35.88772
6.0,7.0,35.88772
6.5,7.0,35.88772
7.0,7.0,35.88772
7.5,7.0,35.88772
8.0,7.0,35.88772
8.5,7.0,35.88772
9.0,7.0,35.88772
9.5,7.0,35.88772
10.0,7.0,35.88772
-10.0,7.5,16.3568
-9.5,7.5,16.35679
-9.0,7.5,16.35678
-8.5,7.5,16.35674
-8.0,7.5,16.35665
-7.5,7.5,16.35639
-7.0,7.5,16.35572
-6.5,7.5,16.35397
-6.0,7.5,16.34958
-5.5,7.5,16.33939
-5.0,7.5,16.32031
-4.5,7.5,16.31194
-4.0,7.5,16.50396
-3.5,7.5,17.88055
-3.0,7.5,22.7827
-2.5,7.5,29.77536
-2.0,7.5,33.72737
-1.5,7.5,35.33691
-1.0,7.5,35.79229
-0.5,7.5,35.87666
0.0,7.5,35.89156
0.5,7.5,35.89439
1.0,7.5,35.89498
1.5,7.5,35.89512
2.0,7.5,35.89515
2.5,7.5,35.89516
3.0,7.5,35.89517
3.5,7.5,35.89517
4.0,7.5,35.89517
4.5,7.5,35.89517
5.0,7.5,35.89517
5.5,7.5,35.89517
6.0,7.5,35.89517
6.5,7.5,35.89517
7.0,7.5,35.89517
7.5,7.5,35.89517
8.0,7.5,35.89517
8.5,7.5,35.89517
9.0,7.5,35.89517
9.5,7.5,35.89517
10.0,7.5,35.89517
-10.0,8.0,16.36042
-9.5,8.0,16.36041
-9.0,8.0,16.36039
-8.5,8.0,16.36033
-8.0,8.0,16.36017
-7.5,8.0,16.35975
-7.0,8.0,16.35864
-6.5,8.0,16.35576
-6.0,8.0,16.34858
-5.5,8.0,16.33219
-5.0,8.0,16.30362
-4.5,8.0,16.30794
-4.0,8.0,16.70491
-3.5,8.0,19.01628
-3.0,8.0,25.23662
-2.5,8.0,31.46763
-2.0,8.0,34.38178
-1.5,8.0,35.54596
-1.0,8.0,35.83701
-0.5,8.0,35.88846
0.0,8.0,35.8975
0.5,8.0,35.89922
1.0,8.0,35.89958
1.5,8.0,35.89966
2.0,8.0,35.89968
2.5,8.0,35.89969
3.0,8.0,35.89969
3.5,8.0,35.89969
4.0,8.0,35.89969
4.5,8.0,35.89969
5.0,8.0,35.89969
5.5,8.0,35.89969
6.0,8.0,35.89969
6.5,8.0,35.89969
7.0,8.0,35.89969
7.5,8.0,35.89969
8.0,8.0,35.89969
8.5,8.0,35.89969
9.0,8.0,35.89969
9.5,8.0,35.89969
10.0,8.0,35.89969
-10.0,8.5,16.36261
-9.5,8.5,16.3626
-9.0,8.5,16.36256
-8.5,8.5,16.36247
-8.0,8.5,16.36221
-7.5,8.5,16.36152
-7.0,8.5,16.35969
-6.5,8.5,16.35496
-6.0,8.5,16.34326
-5.5,8.5,16.31731
-5.0,8.5,16.27739
-4.5,8.5,16.32416
-4.0,8.5,17.10569
-3.5,8.5,20.68508
-3.0,8.5,27.66881
-2.5,8.5,32.70252
-2.0,8.5,34.85363
-1.5,8.5,35.68141
-1.0,8.5,35.86431
-0.5,8.5,35.89562
0.0,8.5,35.90111
0.5,8.5,35.90215
1.0,8.5,35.90237
1.5,8.5,35.90242
2.0,8.5,35.90243
2.5,8.5,35.90243
3.0,8.5,35.90243
3.5,8.5,35.90244
4.0,8.5,35.90244
4.5,8.5,35.90244
5.0,8.5,35.90244
5.5,8.5,35.90244
6.0,8.5,35.90244
6.5,8.5,35.90244
7.0,8.5,35.90244
7.5,8.5,35.90244
8.0,8.5,35.90244
8.5,8.5,35.90244
9.0,8.5,35.90244
9.5,8.5,35.90244
10.0,8.5,35.90244
-10.0,9.0,16.36394
-9.5,9.0,16.36392
-9.0,9.0,16.36386
-8.5,9.0,16.3637
-8.0,9.0,16.36327
-7.5,9.0,16.36214
-7.0,9.0,16.35913
-6.5,9.0,16.35139
-6.0,9.0,16.33249
-5.5,9.0,16.29246
-5.0,9.0,16.24364
-4.5,9.0,16.39847
-4.0,9.0,17.83189
-3.5,9.0,22.84916
-3.0,9.0,29.77999
-2.5,9.0,33.57701
-2.0,9.0,35.19492
-1.5,9.0,35.76741
-1.0,9.0,35.88094
-0.5,9.0,35.89997
0.0,9.0,35.90329
0.5,9.0,35.90393
1.0,9.0,35.90406
1.5,9.0,35.90409
2.0,9.0,35.9041
2.5,9.0,35.9041
3.0,9.0,35.9041
3.5,9.0,35.9041
4.0,9.0,35.9041
4.5,9.0,35.9041
5.0,9.0,35.9041
5.5,9.0,35.9041
6.0,9.0,35.9041
6.5,9.0,35.9041
7.0,9.0,35.9041
7.5,9.0,35.9041
8.0,9.0,35.9041
8.5,9.0,35.9041
9.0,9.0,35.9041
9.5,9.0,35.9041
10.0,9.0,35.9041
-10.0,9.5,16.36474
-9.5,9.5,16.3647
-9.0,9.5,16.36461
-8.5,9.5,16.36435
-8.0,9.5,16.36365
-7.5,9.5,16.36177
-7.0,9.5,16.35684
-6.5,9.5,16.34422
-6.0,9.5,16.3141
-5.5,9.5,16.25495
-5.0,9.5,16.21183
-4.5,9.5,16.59801
-4.0,9.5,19.01147
-3.5,9.5,25.29552
-3.0,9.5,31.42685
-2.5,9.5,34.2021
-2.0,9.5,35.43757
-1.5,9.5,35.82117
-1.0,9.5,35.89105
-0.5,9.5,35.9026
0.0,9.5,35.90462
0.5,9.5,35.905
1.0,9.5,35.90508
1.5,9.5,35.9051
2.0,9.5,35.90511
2.5,9.5,35.90511
3.0,9.5,35.90511
3.5,9.5,35.90511
4.0,9.5,35.90511
4.5,9.5,35.90511
5.0,9.5,35.90511
5.5,9.5,35.90511
6.0,9.5,35.90511
6.5,9.5,35.90511
7.0,9.5,35.90511
7.5,9.5,35.90511
8.0,9.5,35.90511
8.5,9.5,35.90511
9.0,9.5,35.90511
9.5,9.5,35.90511
10.0,9.5,35.90511
-10.0,10.0,16.36521
-9.5,10.0,16.36516
-9.0,10.0,16.365
-8.5,10.0,16.36457
-8.0,10.0,16.36342
-7.5,10.0,16.36034
-7.0,10.0,16.35226
-6.5,10.0,16.33184
-6.0,10.0,16.28484
-5.5,10.0,16.20354
-5.0,10.0,16.20648
-4.5,10.0,17.0213
-4.0,10.0,20.71702
-3.5,10.0,27.701
-3.0,10.0,32.62141
-2.5,10.0,34.6649
-2.0,10.0,35.60475
-1.5,10.0,35.85442
-1.0,10.0,35.89719
-0.5,10.0,35.9042
0.0,10.0,35.90543
0.5,10.0,35.90566
1.0,10.0,35.90571
1.5,10.0,35.90572
2.0,10.0,35.90572
2.5,10.0,35.90572
3.0,10.0,35.90572
3.5,10.0,35.90572
4.0,10.0,35.90572
4.5,10.0,35.90572
5.0,10.0,35.90572
5.5,10.0,35.90572
6.0,10.0,35.90572
6.5,10.0,35.90572
7.0,10.0,35.90572
7.5,10.0,35.90572
8.0,10.0,35.90572
8.5,10.0,35.90572
9.0,10.0,35.90572
9.5,10.0,35.90572
10.0,10.0,35.90572
