iteration,theta0,theta1,gain_plus_bias
0,0.0,0.0,9.4375
1,1.2808593750000006,0.16875000000000012,-2.6789220931012383
2,1.3967124730249967,0.20661309470834996,-2.6138298942950775
3,1.4722848333954248,0.23265914858229664,-2.571068698922384
4,1.5300569605858163,0.2532023066559103,-2.5396165622171547
5,1.5773409994614533,0.2703915920669641,-2.5150996010026763
6,1.617595248272815,0.28527562648789817,-2.495271964113988
7,1.6527654119256125,0.2984588268751545,-2.4788180389638512
8,1.6840669736355012,0.3103263053566632,-2.464899402871483
9,1.712315135659804,0.32114068942939733,-2.4529489750583804
10,1.7380856533874836,0.3310901512525577,-2.4425656895994083
11,1.761801542486886,0.340314697620321,-2.4334558223578506
12,1.7837834496416938,0.3489216494605145,-2.425398131126826
13,1.8042806591471834,0.3569952860341273,-2.418222063957534
14,1.823491085085964,0.36460313139457085,-2.4117935627217895
15,1.8415746611420687,0.37180020681881776,-2.406005492400675
16,1.8586625980576874,0.3786319978046769,-2.400770999461136
17,1.8748639591850145,0.3851365793510613,-2.396018787189167
18,1.8902704408530866,0.39134617314081876,-2.39168968164913
19,1.9049599186111748,0.39728831115695334,-2.3877340882513445
20,1.918999125083764,0.40298672036337396,-2.384110076327164
21,1.9324457041362517,0.4084620056901618,-2.380781915101488
22,1.9453498088763077,0.41373218455669547,-2.3777189397088345
23,1.9577553605497493,0.4188131103645122,-2.3748946622540137
24,1.969701051637314,0.4237188117579602,-2.3722860673470296
25,1.9812211534241386,0.42846176715087503,-2.3698730482715322
26,1.9923461723048421,0.4330531289157257,-2.367637951601822
27,2.0031033877752655,0.43750290800757746,-2.365565206333319
28,2.0135172969478514,0.44182012718236907,-2.3636410195130337
29,2.0236099845267024,0.44601294905954025,-2.361853124665558
30,2.033401432831618,0.45008878386599666,-2.3601905724811174
31,2.042909783221608,0.45405438064075904,-2.3586435555948633
32,2.0521515578283793,0.45791590487944966,-2.3572032610631135
33,3.4678990964323493,0.14754966405846887,-1.6504410527719355
34,3.6961541791337513,-0.8932698091260538,-0.634470257239629
35,4.16021751858665,-1.5044329397478866,-0.150903468873556
36,4.650363743400645,-1.788990907030385,0.12201366619470688
37,5.038175236453708,-2.0296376179535773,0.3064691474376833
38,5.369110684264498,-2.2205487520274714,0.4386062699384672
39,5.655914150579839,-2.3807483645055028,0.5378668354082321
40,5.908644661563511,-2.518962361206922,0.6150775402170559
41,6.134359539265764,-2.64058655190272,0.6767926260978703
42,6.338164444713941,-2.7492172665276153,0.7272124065552568
43,6.523861398830104,-2.847381095927266,0.7691516311478779
44,6.694353022053353,-2.936925504650551,0.8045660608392637
45,6.851902998423892,-3.019244572070739,0.8348560312419249
46,6.9983093505634155,-3.095417378221008,0.8610499524680746
47,7.135023080890141,-3.166296937672252,0.8839196973621206
48,7.263231501892261,-3.2325696035023124,0.9040556290913426
49,7.38391809644131,-3.294796044185952,0.9219168111949858
50,7.497906383475373,-3.3534402896151283,0.9378654632105503
51,7.6058926374992595,-3.4088908063149472,0.9521911332185464
52,7.708470684023881,-3.4614761019632043,0.9651279919790525
53,7.806150959694657,-3.51147648607842,0.9768674247296882
54,7.899375353584731,-3.55913307380045,0.9875673449635403
55,7.988528899329708,-3.6046547759924867,0.9973591825643684
56,8.07394908499244,-3.6482237944434854,1.0063531954879696
57,8.155933338690868,-3.6899999909967782,1.0146425553069878
58,8.2347451016047,-3.7301243971869833,1.0223065240005726
59,8.310618795789308,-3.768722059965951,1.0294129489624155
60,8.383763919066936,-3.80590436896741,1.0360202407369834
61,8.454368444363961,-3.8417709748255473,1.0421789542036253
62,8.522601660275456,-3.8764113819496364,1.0479330628139882
63,8.588616559316916,-3.9099062799361617,1.0533209931041823
64,8.65255185743055,-3.9423286634893224,1.0583764704119316
65,8.714533710873216,-3.973744779948641,1.063129214744035
66,8.77467718320373,-4.004214935333774,1.0676055168325949
67,8.833087504694522,-4.0337941835328355,1.0718287177382786
68,8.88986115837297,-4.062532918397252,1.0758196103011062
69,8.94508682050825,-4.090477384711394,1.0795967768817412
70,8.998846178297848,-4.117670121021196,1.0831768748673656
71,9.05121464346845,-4.144150344943932,1.0865748791169976
72,9.10226197726791,-4.169954289697166,1.0898042887266488
73,9.152052839706995,-4.195115499074615,1.092877304085273
74,9.200647273789567,-4.219665086876507,1.0958049790784496
75,9.248101133735165,-4.243631965812928,1.0985973524111436
76,9.294466464779493,-4.267043050090568,1.101263561312384
77,9.339791840967399,-4.289923435231021,1.1038119403158615
78,9.384122666383654,-4.312296558123203,1.1062501073495996
79,9.427501444463026,-4.334184339860038,1.1085850389948302
80,9.469968019348132,-4.355607313534049,1.1108231364692416
81,9.511559792700412,-4.376584738852663,1.112970283639744
82,9.552311918895663,-4.397134705170924,1.1150318981647116
83,9.592257481136246,-4.417274224317665,1.1170129766952699
84,9.631427650672737,-4.437019314404396,1.1189181349249053
85,9.669851831039109,-4.456385075647658,1.1207516431585365
86,9.707557788960974,-4.475385759100551,1.1225174579746908
87,9.744571773385703,-4.494034829074201,1.1242192504718918
88,9.780918623902991,-4.512345019931473,1.1258604315209517
89,9.81662186966897,-4.530328387850812,1.127444174386897
90,9.851703819814269,-4.54799635808501,1.1289734350341236
91,9.886185646198843,-4.565359768177346,1.1304509703868355
92,9.920087459278175,-4.582428907542605,1.1318793547806925
93,9.9534283777557,-4.599213553773953,1.1332609948111512
94,9.98622659262242,-4.61572300599496,1.1345981427576661
95,10.018499426117353,-4.631966115540581,1.135892908740475
96,10.050263386082992,-4.647951314219882,1.1371472717472377
97,10.08153421614146,-4.663686640385255,1.1383630896500985
98,10.112326942070188,-4.679179763009267,1.1395421083194672
99,10.142655914717084,-4.694438003949084,1.14068596992779
100,10.172534849759826,-4.709468358559663,1.1417962205261634
101,10.201976864584012,-4.724277514800359,1.1428743169669322
102,10.230994512526424,-4.738871870965171,1.1439216332371314
103,10.259599814706164,-4.753257552153807,1.1449394662603627
104,10.287804289644221,-4.7674404255894,1.145929041218407
105,10.315618980853552,-4.781426114878237,1.146891516438358
106,10.343054482563584,-4.795220013298173,1.1478279878859876
107,10.370120963728969,-4.808827296193745,1.148739493301854
108,10.396828190457324,-4.822252932549331,1.1496270160127988
109,10.423185546979576,-4.8355016958046555,1.1504914884483282
110,10.449202055275283,-4.848578173971354,1.1513337953878313
111,10.474886393453884,-4.861486779104351,1.1521547769627585
112,10.500246912986537,-4.874231756176454,1.1529552314347153
113,10.525291654872976,-4.886817191400842,1.1537359177689082
114,10.55002836482147,-4.8992470200421465,1.1544975580202408
115,10.574464507513134,-4.91152503375337,1.1552408395478038
116,10.598607280016301,-4.923654887472652,1.1559664170719657
117,10.622463624410702,-4.935640105911261,1.1566749145869197
118,10.646040239676699,-4.947484089661524,1.157366927140428
119,10.669343592900143,-4.959190120951103,1.1580430224913867
120,10.692379929840017,-4.97076136906775,1.158703742654851
121,10.715155284901106,-4.982200895477168,1.1593496053434276
122,10.737675490552094,-4.99351165865432,1.1599811053128377
123,10.759946186225056,-5.004696518647438,1.160598715619312
124,10.78197282673094,-5.015758241392001,1.161202888795068
125,10.80376069022129,-5.026699502791308,1.161794057948517
126,10.825314885726378,-5.037522892578176,1.162372637794276
127,10.846640360295378,-5.048230917972131,1.1629390256185563
128,10.867741905764284,-5.058826007144657,1.1634936021842384
129,10.88862416517425,-5.069310512504553,1.1640367325803807
130,10.909291638861912,-5.079686713814499,1.164568767019711
131,10.929748690241569,-5.089956821149076,1.1650900415880274
132,10.949999551297525,-5.100122977703915,1.1656008789488612
133,10.970048327804282,-5.1101872624647315,1.1661015890061956
134,10.989899004290134,-5.120151692744656,1.1665924695285304
135,11.009555448759416,-5.1300182265975405,1.1670738067366684
136,11.029021417187263,-5.139788765114433,1.1675458758575457
137,11.048300557799976,-5.149465154609927,1.1680089416467405
138,11.067396415152823,-5.159049188704756,1.1684632588812578
139,11.08631243401725,-5.168542610310293,1.1689090728249476
140,11.10505196308752,-5.1779471135206405,1.1693466196679783
141,11.123618258516892,-5.187264345417366,1.1697761269423101
142,11.142014487292961,-5.196495907791566,1.1701978139145166
143,11.160243730460433,-5.205643358787927,1.1706118919573916
144,11.178308986199925,-5.214708214474811,1.171018564901746
145,11.196213172769943,-5.223691950344544,1.1714180293695353
146,11.21395913131975,-5.2325960027473615,1.1718104750895404
147,11.23154962857963,-5.241421770262647,1.1721960851965845
148,11.248987359434913,-5.250170615010664,1.1725750365152887
149,11.266274949389759,-5.258843863907882,1.1729474998293257
150,11.283414956926249,-5.267442809868774,1.1733136401370672
151,11.300409875764235,-5.275968712956772,1.1736736168942672
152,11.317262137026667,-5.284422801487008,1.1740275842446963
153,11.333974111315523,-5.292806273083086,1.1743756912393746
154,11.350548110701993,-5.301120295690452,1.1747180820449863
155,11.366986390636082,-5.309366008548113,1.175054896142214
156,11.383291151778662,-5.31754452312108,1.1753862685144454
157,11.399464541760231,-5.325656923995201,1.1757123298274457
158,11.415508656869653,-5.333704269736302,1.1760332066005303
159,11.431425543676355,-5.341687593715253,1.1763490213695866
160,11.44721720058885,-5.349607904900658,1.1766598928425531
161,11.462885579352891,-5.357466188620576,1.1769659360475808
162,11.478432586491596,-5.365263407294847,1.1772672624745324
163,11.493860084690857,-5.373000501139178,1.1775639802097584
164,11.50916989413178,-5.380678388842506,1.1778561940650416
165,11.52436379377304,-5.388297968218718,1.17814400570047
166,11.539443522585383,-5.395860116833854,1.1784275137420295
167,11.554410780740167,-5.403365692609985,1.1787068138938235
168,11.569267230754077,-5.4108155344067725,1.1789819990454378
169,11.584014498592081,-5.418210462581634,1.1792531593746127
170,11.598654174730191,-5.425551279529525,1.1795203824453586
171,11.613187815180044,-5.432838770203162,1.1797837533019342
172,11.627616942476608,-5.440073702614608,1.1800433545588271
173,11.641943046630972,-5.447256828318901,1.1802992664867902
174,11.656167586049367,-5.4543888828806075,1.180551567095368
175,11.67029198842007,-5.4614705863239275,1.1808003322118688
176,11.684317651569348,-5.46850264356712,1.1810456355571284
177,11.698245944287931,-5.475485744841808,1.1812875488181076
178,11.712078207128867,-5.4824205660979395,1.1815261417174985
179,11.725815753178484,-5.489307769394775,1.1817614820804674
180,11.739459868801042,-5.496148003278665,1.1819936358988272
181,11.753011814358317,-5.502941903148089,1.1822226673924385
182,11.766472824905376,-5.509690091606361,1.1824486390683027
183,11.77984411086286,-5.516393178802745,1.182671611777205
184,11.793126858667472,-5.523051762762143,1.1828916447682558
185,11.80632223140095,-5.529666429704021,1.183108795741135
186,11.819431369398558,-5.53623775435093,1.1833231208964423
187,11.832455390838065,-5.542766300226957,1.1835346749840094
188,11.845395392309545,-5.549252619946659,1.1837435113493542
189,11.858252449367287,-5.555697255494608,1.1839496819784774
190,11.871027617063877,-5.562100738496188,1.1841532375407962
191,11.883721930467736,-5.568463590479702,1.1843542274305956
192,11.896336405164227,-5.5747863231303345,1.1845526998067832
193,11.908872037741196,-5.58106943853616,1.1847487016313858
194,11.92132980625959,-5.587313429426483,1.1849422787063113
195,11.93371067070957,-5.593518779402854,1.1851334757091214
196,11.946015573452573,-5.599685963163016,1.185322336227114
197,11.958245439650122,-5.605815446717994,1.1855089027904997
198,11.970401177679461,-5.61190768760267,1.1856932169041863
199,11.98248367953692,-5.617963135079957,1.185875319078474
200,11.994493821229218,-5.62398223033886,1.18605524885864
201,12.006432463152972,-5.629965406686742,1.1862330448535339
202,12.018300450463283,-5.6359130897357765,1.1864087447630625
203,12.030098613431207,-5.641825697584047,1.186582385404829
204,12.041827767791206,-5.647703640991212,1.1867540027397232
205,12.05348871507815,-5.653547323549196,1.1869236318967342
206,12.065082242954844,-5.659357141847877,1.187091307196778
207,12.07660912553003,-5.665133485636055,1.1872570621758967
208,12.088070123667432,-5.670876737977796,1.1874209296074922
209,12.099465985286017,-5.676587275404341,1.187582941523834
210,12.110797445651796,-5.682265468061733,1.1877431292369578
211,12.12206522766149,-5.687911679854291,1.187901523358771
212,12.133270042118191,-5.693526268584099,1.1880581538204265
213,12.144412587999486,-5.699109586086602,1.1882130498912442
214,12.155493552718175,-5.704661978362462,1.1883662401968174
215,12.166513612375855,-5.71018378570579,1.1885177527366366
216,12.177473432009496,-5.715675342828905,1.1886676149010924
217,12.18837366583155,-5.7211369789836395,1.1888158534879252
218,12.199214957463354,-5.726569018079441,1.188962494718211
219,12.209997940162411,-5.731971778798258,1.1891075642517195
220,12.220723237043625,-5.737345574706347,1.189251087201916
221,12.231391461294475,-5.742690714363179,1.1893930881503443
222,12.242003216384878,-5.7480075014273275,1.1895335911606972
223,12.252559096271092,-5.753296234759748,1.1896726197923022
224,12.263059685594746,-5.758557208524176,1.18981019711334
225,12.273505559876332,-5.763790712285052,1.189946345713512
226,12.283897285703897,-5.768997031102839,1.190081087716377
227,12.294235420916882,-5.774176445626885,1.1902144447913816
228,12.304520514785061,-5.7793292321859715,1.190346438165324
229,12.31475310818329,-5.784455662876423,1.1904770886337053
230,12.324933733761402,-5.789556005648142,1.190606416571589
231,12.33506291611025,-5.794630524388314,1.1907344419441221
232,12.34514117192321,-5.799679479003143,1.190861184316844
233,12.355169010153862,-5.804703125497472,1.1909866628656172
234,12.365146932169827,-5.809701716052399,1.1911108963862516
235,12.375075431902623,-5.814675499101043,1.1912339033039063
236,12.384954995993807,-5.819624719402443,1.1913557016821503
237,12.3947861039378,-5.824549618113562,1.1914763092317862
238,12.404569228221032,-5.8294504328596135,1.1915957433194486
239,12.414304834457832,-5.834327397802625,1.1917140209758585
240,12.423993381522818,-5.839180743708443,1.1918311589039727
241,12.433635321680493,-5.844010698011982,1.1919471734867666
242,12.44323110071133,-5.848817484881057,1.1920620807949036
243,12.45278115803523,-5.853601325278582,1.1921758965941298
244,12.46228592683178,-5.858362437023376,1.192288636352436
245,12.471745834157797,-5.863101034849503,1.192400315247078
246,12.481161301062228,-5.867817330464182,1.192510948171357
247,12.490532742698136,-5.87251153260442,1.1926205497412652
248,12.499860568432247,-5.877183847092283,1.1927291343018744
249,12.50914518195195,-5.8818344768888755,1.192836715933569
250,12.518386981369796,-5.8864636221471125,1.192943308458156
251,12.527586359325635,-5.891071480263252,1.1930489254447405
252,12.536743703086447,-5.895658245927256,1.193153580215478
253,12.545859394643754,-5.9002241111720535,1.1932572858512183
254,12.554933810809077,-5.904769265421607,1.193360055196834
255,12.563967323307155,-5.909293895537926,1.1934619008666232
256,12.572960298866883,-5.9137981858671,1.193562835249395
257,12.58191309931054,-5.918282318284188,1.193662870513497
